{
  "CPLayers": [
    {
      "Convolutional": {
        "InputSize": 64,
        "Filters": [
          [
            [
              [
                2310.036573632136
              ],
              [
                2355.7686752184118
              ],
              [
                2866.4990198263818
              ]
            ],
            [
              [
                2187.553834035729
              ],
              [
                2435.7210990985686
              ],
              [
                2950.552801479745
              ]
            ],
            [
              [
                2126.5785685450314
              ],
              [
                2609.5051309875894
              ],
              [
                3169.4249237806143
              ]
            ]
          ],
          [
            [
              [
                1137.9567572380774
              ],
              [
                1083.6769305543044
              ],
              [
                795.570418022842
              ]
            ],
            [
              [
                1410.3637028698754
              ],
              [
                1203.4080673804417
              ],
              [
                757.3074829398536
              ]
            ],
            [
              [
                1633.8012550030858
              ],
              [
                1286.3789712092234
              ],
              [
                741.4046016388326
              ]
            ]
          ],
          [
            [
              [
                307.63073483885205
              ],
              [
                314.2567073883508
              ],
              [
                209.80498086731535
              ]
            ],
            [
              [
                323.4646770504485
              ],
              [
                379.2033628637604
              ],
              [
                304.3450415340742
              ]
            ],
            [
              [
                326.3521415727387
              ],
              [
                388.59752373790104
              ],
              [
                381.2445942914824
              ]
            ]
          ]
        ],
        "Biases": [
          -9739.34334516909,
          -78.3024020534468,
          915.6352847506034
        ]
      },
      "Pooling": {
        "PoolSize": 2,
        "Stride": 2
      }
    },
    {
      "Convolutional": {
        "InputSize": 31,
        "Filters": [
          [
            [
              [
                17.375674408361274,
                17.567766911212384
              ],
              [
                45.0688267878636,
                45.19788234398692
              ],
              [
                40.50387850348774,
                40.6048118274626
              ]
            ],
            [
              [
                9.940742392446941,
                10.634058038594931
              ],
              [
                36.01526321741625,
                35.855210990922494
              ],
              [
                27.993179439295233,
                27.441311552062764
              ]
            ],
            [
              [
                -3.341456861955034,
                -3.0324189322147306
              ],
              [
                18.70346784197869,
                18.24380056212536
              ],
              [
                19.866133086124954,
                19.490549241922032
              ]
            ]
          ],
          [
            [
              [
                -12.637911708640585,
                -12.632048038942228
              ],
              [
                -7.543615171581317,
                -7.636361363332194
              ],
              [
                -6.162914873431575,
                -5.849784957608241
              ]
            ],
            [
              [
                -25.103304238690644,
                -25.125042691041127
              ],
              [
                -20.201068430312482,
                -19.537757634235618
              ],
              [
                -4.677204216445483,
                -4.999167879306744
              ]
            ],
            [
              [
                -29.0043371688807,
                -29.179239734534516
              ],
              [
                -12.995753881635409,
                -12.70299406217871
              ],
              [
                2.7168583629392535,
                2.9293255792316546
              ]
            ]
          ],
          [
            [
              [
                3.9712860874578064,
                3.196250302327931
              ],
              [
                -9.204751222378585,
                -9.089232936429715
              ],
              [
                -5.56539698681758,
                -5.145959065719568
              ]
            ],
            [
              [
                5.470860276953814,
                5.453410408431831
              ],
              [
                -4.0010675419003725,
                -4.0235281886547405
              ],
              [
                -11.919527284585998,
                -11.53683198528086
              ]
            ],
            [
              [
                10.632516538413688,
                10.162577158021152
              ],
              [
                -1.3101194232824063,
                -1.0634021554655892
              ],
              [
                -16.90849142141647,
                -16.794404705804887
              ]
            ]
          ],
          [
            [
              [
                34.823455273142194,
                34.80433004062841
              ],
              [
                64.26147567541,
                64.74516729409875
              ],
              [
                52.40761487726535,
                52.65190748555951
              ]
            ],
            [
              [
                41.28859605712308,
                41.8743392552901
              ],
              [
                81.64705739065154,
                81.59806681462781
              ],
              [
                66.02401074043887,
                66.15922927352912
              ]
            ],
            [
              [
                25.27900028967812,
                24.908214127130638
              ],
              [
                63.21683462875938,
                64.0608665324961
              ],
              [
                61.82673164145362,
                62.07297949482076
              ]
            ]
          ],
          [
            [
              [
                47.98142905005975,
                47.92667049477476
              ],
              [
                59.20507766410413,
                59.203395765303334
              ],
              [
                33.29853956639314,
                33.347482339839864
              ]
            ],
            [
              [
                69.57948683574767,
                69.81867527909397
              ],
              [
                83.85329224305218,
                84.1222397172942
              ],
              [
                49.49709339254079,
                49.48740093706871
              ]
            ],
            [
              [
                76.53974709932297,
                76.39712593420259
              ],
              [
                86.0524653687849,
                86.58354258248387
              ],
              [
                45.781638007103595,
                45.54796230414398
              ]
            ]
          ]
        ],
        "Biases": [
          -115.21649819627208,
          -0.9186069946908163,
          -24.687936092066696,
          -127.05917080618956,
          -113.14510388934939
        ]
      },
      "Pooling": {
        "PoolSize": 2,
        "Stride": 2
      }
    }
  ],
  "DenseLayer": {
    "InputSize": 980,
    "OutputSize": 10,
    "Weights": [
      [
        0.39161111734461507,
        0.3610071765010052,
        0.2366604565156087,
        0.2292782871972701,
        -0.08951704958757664,
        -0.16424678443619856,
        0.0644366385904094,
        0.2083395235367505,
        -0.28674566159087755,
        -0.20369748804611124,
        -0.5116501339737346,
        -0.40938366403789483,
        -0.30524790896698456,
        0.07762357985513268,
        0.4989365402671582,
        -0.24828905075948884,
        -0.028028337928895645,
        0.01179324701862465,
        0.3386281098925842,
        -0.06209523336664282,
        0.22403671638646777,
        0.21240778787554393,
        -0.017893284691923347,
        0.00848803620764215,
        0.24433667601554834,
        -0.2808459305643114,
        -0.34590206602779117,
        -0.3569751862333273,
        -0.21116470539336157,
        -0.692030444405964,
        -0.3411889569804824,
        -0.25276497883144333,
        0.3423539664147579,
        -0.3005325591316729,
        0.5759616939467823,
        0.3125140915261795,
        -0.06319303809119965,
        -0.1422836354980404,
        0.3901804780325086,
        0.4409645379934035,
        -0.32171739823182305,
        -0.48518673458164185,
        0.0058191618512064966,
        0.2811003528023921,
        -0.039640756210947765,
        0.24123345491777778,
        0.07166756485588398,
        0.44785695125599817,
        0.49269247664621546,
        0.5551063408206667,
        -0.06918709666458077,
        -0.07353061648889699,
        -0.2645874255464526,
        -0.2158050256356131,
        -0.10547383968017914,
        -0.002718774298716265,
        -0.3192804850289738,
        0.4168510965645235,
        0.13140516101466979,
        -0.03645666927013319,
        0.1386308577633355,
        0.3778988926098525,
        0.42394116744349136,
        -0.34075080211157605,
        0.26498815508061874,
        -0.6746905634519128,
        0.15854929884908006,
        -0.207682642103944,
        0.16415992371712657,
        0.11480994723026311,
        0.07568581384353719,
        0.20934638020827964,
        0.06861452661878462,
        -0.3124341610843181,
        -0.11402872877113518,
        0.39504533956784527,
        0.2548066167528026,
        0.4623345772659147,
        0.5418305476846657,
        0.05819129330996277,
        -0.06270285865238262,
        0.32443890787026686,
        0.10687367035002318,
        0.19003539830541774,
        0.305255258209417,
        -0.19913980724318403,
        0.1591202760558493,
        0.07332589923011877,
        0.03876379732535867,
        -0.6641193661011242,
        -0.3589464117671074,
        -0.21986755705993066,
        -0.20556331488392326,
        -0.5596240029895451,
        0.059558954549103475,
        -0.1286369927246181,
        0.24506762651817884,
        -0.0746003951948931,
        -0.15116325635155559,
        -0.3824130051399938,
        0.4111878414950945,
        -0.26518731958271646,
        -0.22014972034318894,
        -0.18904276646083842,
        -0.14155462542098693,
        0.26251333312553893,
        0.11419502593128124,
        -0.4372101926647519,
        0.3704637925298754,
        0.31381913737868117,
        -0.07039867695869957,
        -0.3539697243870387,
        0.24649722112655942,
        0.13345063997435308,
        0.16515110515610218,
        -0.5195880257893741,
        -0.3142271832403357,
        0.408109413891721,
        0.26482224673424914,
        0.032066024621331894,
        -0.3645214231733852,
        -0.1859352767935351,
        -0.2573467149472638,
        0.10802895648009803,
        0.40762097236389794,
        -0.35358317718593674,
        0.05904013468301414,
        0.48995642343426143,
        -0.09617239927279611,
        0.06955871306375426,
        -0.25111463676570683,
        -0.4655803611053982,
        -0.03821426012967059,
        0.01564933925775549,
        0.15585750093765324,
        0.14338172006701105,
        -0.244751111277719,
        0.2552633258097323,
        0.07754481829542684,
        0.13799068688105132,
        -0.2692423763732205,
        0.10112132870805426,
        -0.15195292727556636,
        0.48069259261000963,
        0.2954394141284647,
        0.06774029504670685,
        -0.03856579612428302,
        -0.4642218740932957,
        0.019629083572966936,
        0.356684972859072,
        0.3882943821483432,
        -0.5033036592930327,
        -0.476468036903499,
        0.00826189587101067,
        0.3772195439568059,
        0.12782099604845534,
        0.175693869671844,
        0.038975776488873806,
        0.2577476816824121,
        -0.277891703212745,
        0.38813398392706666,
        -0.09097862452894565,
        0.16632501590393076,
        0.03815505952959935,
        -0.08015765746238558,
        0.22135395181605158,
        0.20801429013582007,
        -0.046216714896550645,
        -0.08120558098721006,
        0.40260532740422905,
        -0.10854658739457233,
        -0.3732553642729895,
        -0.06749941407643098,
        0.2538708117607695,
        0.1528778409954264,
        -0.47415649338551075,
        0.08854897251293277,
        0.07809770126816462,
        0.43117176661378476,
        -0.274575879933832,
        -0.1081879377877936,
        -0.307526565300381,
        0.23330070983329332,
        0.04970887813181741,
        -0.30921874677918876,
        0.1479974715540327,
        -0.4997080762566062,
        -0.1057586782297894,
        0.3954502007359478,
        -0.42114857783341886,
        0.05972014165485422,
        0.45945958326605957,
        0.2869282576499588,
        0.20267785305519906,
        -0.07197278815755029,
        0.3404218819559113,
        -0.03944277235384748,
        0.29990058338016323,
        0.4826406038990296,
        0.19399996293923816,
        -0.12544153564074967,
        -0.15115127694890348,
        0.20638540838367284,
        -0.4025269825580766,
        -0.12949539481681702,
        -0.5239619705595069,
        -0.03883542359622696,
        0.10155799356669068,
        0.06113730197590813,
        0.4600560310901561,
        0.26583629167174055,
        -0.3211366094652224,
        0.017281096096323872,
        0.4876594507238228,
        0.13329042247361797,
        0.5156319345174346,
        -0.3594018905555514,
        0.1112909263407139,
        -0.11794307469861494,
        0.2927575094312253,
        0.18800292159043155,
        -0.0402034937202976,
        0.3134714275129326,
        0.5009193905501681,
        0.2451293103320983,
        0.5371567029331701,
        -0.3602899372654184,
        0.4590018888795112,
        0.18420614133487642,
        0.07936512993284255,
        0.486034229034347,
        -0.17660995854977546,
        0.17880891560143394,
        0.05034858143629841,
        0.43301606152453004,
        0.3777735536770016,
        0.26458753242954985,
        0.03567947817702165,
        -0.39790461902459956,
        -0.05171808514441334,
        -0.15738379035253913,
        0.3403113337978217,
        -0.46384602159632854,
        -0.08009243510625778,
        0.0138372300629259,
        0.21139355923084446,
        0.02688885404944782,
        -0.024775457207408782,
        0.4611250841438544,
        0.2835589012289692,
        -0.3452956084737501,
        0.41100391519182344,
        0.08365434064964376,
        -0.36657660595784586,
        -0.19024299102863743,
        -0.47537168459766566,
        0.19666182780158287,
        -0.18005884994651952,
        0.07304612776180851,
        0.16356706056940284,
        -0.33695109629532893,
        0.23546030305923146,
        0.0870879065913373,
        0.13752210316209096,
        -0.2222446844561126,
        0.09430130331207341,
        -0.0417135721111511,
        -0.15822779695945682,
        -0.002543686825536372,
        -0.03821684380855477,
        -0.20261927071992594,
        -0.20116231690555308,
        0.24385203727145852,
        0.2842812577585608,
        0.5080108151122459,
        0.23868385492231547,
        0.28481942346247546,
        0.07148296835159851,
        -0.02893328872282895,
        -0.1090361377579554,
        -0.10303518171706044,
        0.17509415768709086,
        -0.28580946006752855,
        0.4954200458707814,
        0.23519771710354337,
        0.6065645976279255,
        0.39712380657489477,
        -0.13071988748029448,
        0.24965827641644114,
        0.14254653161836853,
        -0.2655148638620332,
        -0.2376428860289727,
        -0.2924508460336888,
        0.7562293426435189,
        -0.029626826813759458,
        0.12373369720709473,
        0.39435770076228444,
        -0.20455921511537484,
        0.585812730158167,
        0.7668009370287405,
        0.0880346671364983,
        0.05098077725566775,
        -0.14566225611704076,
        0.14181420188221824,
        0.1905519701319555,
        0.4536572939342945,
        0.3854760374483138,
        0.4502767370008347,
        0.6608802239794305,
        0.05930864992552233,
        0.07973816566706672,
        -0.41822833736733067,
        0.3118951429978299,
        0.5739959485222245,
        0.42323460502635746,
        0.11457142272265645,
        -0.3018595352662975,
        0.5071185997353587,
        0.15279736743695113,
        -0.5133442913446988,
        0.39164796631494125,
        0.4778321457856613,
        -0.5032792570862653,
        -0.2409513332707364,
        -0.7626000251175344,
        -0.31366939398293253,
        0.15274811990031215,
        -0.02863909192802984,
        0.020356577590586886,
        -0.23394806507250404,
        0.4833581054315739,
        -0.32314618669935613,
        -0.1788605165276212,
        0.33794341221104895,
        0.06913979022257073,
        0.5272023627327792,
        -0.08815676354772331,
        0.4490955888536846,
        -0.07637605654035422,
        0.15414658890320898,
        0.4858470705240839,
        0.005972328633055023,
        -0.4268417555642092,
        -0.03841533675174575,
        0.7596350378626556,
        0.2234565964695461,
        0.005930177931461319,
        -0.04668888682946769,
        0.12167359017917506,
        0.6794579486728464,
        0.5666288836505488,
        -0.3250335103721185,
        0.17322361997398533,
        0.018857999014107313,
        0.45273016771635927,
        0.34398430280644277,
        0.1935791901745088,
        0.43434548852059385,
        0.10099569673323938,
        0.3110361323996736,
        -0.14846815930101126,
        -0.03660692098772294,
        -0.40137869756648914,
        0.26165362736727227,
        0.3447178448984522,
        0.08409022096169316,
        0.1089075172988479,
        -0.19273691530343806,
        0.24035477281643772,
        0.1635887547641261,
        0.20986562884189616,
        -0.5109067863601808,
        -0.08103922439722745,
        -0.03707842237883792,
        0.41249568428382566,
        0.3455655836720854,
        0.3159765083104834,
        0.24016549117148445,
        0.1749746028532908,
        0.028779737959857925,
        -0.0962310680030442,
        -0.2553850597385885,
        0.39406248796545884,
        -0.0223049189389735,
        0.5185942241999156,
        0.07643848829329714,
        0.476286161238459,
        -0.19529110625374826,
        -0.4157114052225283,
        -0.7563103089281711,
        -0.617249413797623,
        0.19426372325990318,
        -0.11772540780909843,
        -0.2799784204536013,
        -0.9129881907846727,
        0.5629736962557291,
        0.2559632449399519,
        0.1769897701218331,
        -0.18803099585744676,
        -0.08093739888226867,
        -0.31134662764708126,
        -0.10308885731460285,
        -0.41460159068450014,
        -0.27135860515229154,
        0.02319225322011726,
        0.07177969347075888,
        -0.09748883442504316,
        0.3550398976830945,
        0.18438062673355662,
        0.6624541411008794,
        -0.09953794755257046,
        -0.2970119835652515,
        0.23140124148684482,
        0.0852283057370961,
        0.14206296492595905,
        -0.13418209080168844,
        -0.08157755842759107,
        -0.09849174685609281,
        0.17007464461350139,
        0.43447465773938976,
        0.06689533696646373,
        -0.16128909921739026,
        0.08181493573200653,
        0.4619317248187474,
        -0.12869554846552125,
        -0.2170569687978634,
        0.24740223714884543,
        0.24705670432341384,
        -0.4299935081263344,
        0.05340112996200756,
        0.41586287122568105,
        -0.1337893557942859,
        -0.13592540090012112,
        -0.08154165210969032,
        0.2692064488306567,
        0.45413090384378024,
        -0.350532019333509,
        0.3546547193761759,
        -0.12731752175101962,
        0.16282476969646786,
        -0.43388289971038596,
        -0.18093021465231882,
        -0.3957070965907821,
        -0.044732839967314524,
        -0.2652686128024366,
        -0.25733276861075893,
        0.4481085152337445,
        0.0836035675985585,
        -0.21580752668659706,
        -0.03336046247820262,
        0.3129666463410551,
        -0.11455836628579823,
        0.4345337745781902,
        -0.000948580197291232,
        0.09266977483195671,
        -0.29935970764289505,
        -0.09960087092181871,
        0.08672872076119255,
        -0.9947070474757453,
        -0.2996643276848469,
        0.12193070189161843,
        0.34427666901960796,
        -0.1969226222460023,
        0.09989906932234888,
        -0.8397516870955721,
        0.10316687954341092,
        -0.4281936448982992,
        -0.017240141614494896,
        0.3029279987750909,
        -0.5391463843193374,
        -0.5479694263160263,
        -0.45988117279318697,
        0.41297282644526473,
        0.07691283193195639,
        0.15432710967781946,
        0.1720402554145952,
        -0.0381407171147427,
        -0.4064000496232352,
        0.6368693844778047,
        0.005022686502611336,
        -0.23618265203423225,
        0.326667198267016,
        0.1953429246503527,
        0.01172980250912137,
        0.5392820969626231,
        -0.11637167974458358,
        0.07785413456421195,
        0.3825514879588412,
        -0.11675400718757115,
        0.22728030056830878,
        0.34456265167081834,
        -0.30550778781688104,
        -0.2999129101599068,
        0.2650510219173517,
        0.059006534439136865,
        0.2037585328046815,
        -0.4576373520647069,
        0.4094166203729167,
        -0.08177578734688204,
        0.2725652366026318,
        0.04673701394577309,
        0.4494452158807745,
        -0.14966711584322792,
        0.05979886662156049,
        -0.091254721227373,
        0.1751607364927941,
        0.20418506552165017,
        -0.4686629541078134,
        0.29941039076857534,
        0.7349633250698565,
        -0.22521849678765807,
        0.4531644076402233,
        0.017042492274811468,
        -0.16307240431361728,
        0.27694257207657674,
        0.29172882795799543,
        -0.15271395754325975,
        -0.040852926000778875,
        -0.015647299700006802,
        -0.058874033784882374,
        -0.802816238983273,
        0.253306832984551,
        -0.34039911119319827,
        -0.3649815028968038,
        -0.3703247115666014,
        -0.7907808216060235,
        -0.2942508204951296,
        0.05946471839579483,
        -0.8095937046909092,
        -0.7974579189398068,
        -0.511317235144449,
        -0.14866561430672143,
        -0.5132266352341676,
        -0.10524084629388447,
        -0.7090275279046913,
        -0.11867327110012946,
        0.034949587620566804,
        0.0015296267156086815,
        -0.3147723338771497,
        -0.24575760155258705,
        0.17924886833515327,
        0.3917558429606643,
        0.16531058406205962,
        -0.1727401258877046,
        0.18530876637755864,
        -0.11077501927749996,
        -0.4482622895075471,
        -0.4963874751504925,
        0.33650025106851633,
        0.08006580059064883,
        0.10644760967185364,
        0.46042451183073735,
        -0.5828243657308504,
        -0.13930159139706852,
        -0.0915287539049717,
        0.7625926977279233,
        -0.21903141432765683,
        -0.12080126031178733,
        0.34615942883931916,
        0.10990706527124049,
        0.28332030944296016,
        -0.426199876473502,
        0.2041055136708645,
        0.11172539300210234,
        0.19931020967693525,
        0.03426395016871539,
        0.0777885877859874,
        0.30073578180135296,
        0.24951253191151587,
        -0.024618395258979745,
        -0.20366977920682386,
        -0.07971316348863322,
        0.19878181846661147,
        0.1666432210242603,
        -0.05862642985507791,
        0.07832154122807582,
        -0.3648122643353564,
        0.45002153780515813,
        -0.1550941011197221,
        -0.09561086236257199,
        -0.29413610550545877,
        0.48098571205946294,
        -0.20428150867355704,
        0.08782131202785119,
        -0.2721852199638249,
        -0.637619950851463,
        -0.1867053638219613,
        -0.01747857284268922,
        0.17842439299803273,
        -0.5625415055658228,
        -0.897390104455537,
        -0.3014604173899871,
        0.40119904928062317,
        -0.8529833396225873,
        -0.7652629906083439,
        -0.6207855474705841,
        0.13309358847702266,
        0.2801746284100069,
        -0.6701322315572534,
        -0.7119965850488228,
        0.6643370938911539,
        0.21252693524064814,
        -0.15823468837505877,
        0.2748160925640876,
        -0.2957372436364036,
        -0.43309203203952357,
        0.40090747513176916,
        -0.3294018184687591,
        0.2330747695884447,
        0.3239288831847614,
        0.05843054239090188,
        0.41696610156267355,
        -0.5582390463292001,
        -0.1977945150911772,
        -0.43179700426364437,
        -0.08184971983843574,
        -0.34697946840286,
        -0.4170678542686721,
        -0.12838641008395452,
        0.3603531719708157,
        -0.2733579419238122,
        -0.43522677182247166,
        -0.4552665741216561,
        -0.18291976069134863,
        0.06545408799172361,
        0.13129733380137545,
        0.14675945037154747,
        -0.42485443804008,
        0.41285377238218895,
        -0.10542655834894867,
        0.21868507144080937,
        0.32273873540098763,
        0.024310676254576166,
        -0.3528722744861935,
        0.09360669485468648,
        0.22536152873262436,
        -0.37596066692878705,
        -0.12472236224924745,
        0.40184907747825144,
        -0.43040239326207047,
        0.5257738842430502,
        0.2321360284878235,
        0.3410264753792418,
        -0.0137722198327743,
        0.388455012850185,
        0.032865553829294986,
        0.06833656133957204,
        -0.020813119192472657,
        -0.15286221366681704,
        0.6652737889250445,
        0.31574808602662835,
        -0.2424171261058955,
        -0.2987416346502893,
        0.11354507179213104,
        0.12853162792313597,
        -0.2500786595581884,
        -0.1181832224143419,
        -0.3122491228588174,
        -0.12880672645225452,
        -0.13917910728676225,
        -0.6466023424703752,
        0.2532789812297345,
        0.3278067558608155,
        -0.9889640291180779,
        -0.8477345843937059,
        0.1208102737953848,
        -0.10927791120841099,
        -0.20343980618943547,
        -0.18213394584491524,
        0.01695088104841057,
        0.6340328832077897,
        0.4327555860989425,
        0.3050359536304606,
        0.2318174359960811,
        0.41253398337387853,
        -0.0048300499125134835,
        -0.10260696285015497,
        0.40224814141157283,
        -0.4347204816454063,
        0.3013454626049434,
        -0.13408173177690572,
        0.34409071143565556,
        -0.2220383902340586,
        -0.46025055834344347,
        0.024813497118661477,
        0.0004471887054067487,
        0.3895290654606973,
        -0.06691740245625497,
        0.5295460871004071,
        -0.3076764831074839,
        0.22995150443237702,
        0.1812302253115165,
        0.34445392044255735,
        -0.0501020617395305,
        0.03969179308151281,
        -0.1332522502515269,
        0.07418724719158973,
        0.05834378123520996,
        0.6535252351482971,
        -0.0028376255317745284,
        0.194265193925456,
        -0.32679838552262863,
        -0.30841284945011843,
        0.15283291869142177,
        -0.30645804278734096,
        -0.2551225536000967,
        0.01724225802518817,
        0.3874207602567803,
        0.20709014478079413,
        0.02333788757789351,
        0.6898067569818926,
        -0.09946675875821392,
        0.29960265721378315,
        -0.09626555831421336,
        0.2215769687396592,
        0.4159985886943704,
        -0.01933810859017976,
        0.20146969832037132,
        -0.338480175285786,
        -0.09889999284047002,
        -0.10812062516722366,
        -0.4472126363854374,
        0.24109697254972118,
        0.0004767996666788766,
        0.3963453368341252,
        0.3334658540567084,
        -0.12516787663769988,
        0.011349832126099007,
        0.2750531175775998,
        -0.3551696316416772,
        -0.21579164065204545,
        -0.06223023172350395,
        -0.24451380560939073,
        -0.4421225879206282,
        -0.8025788388190817,
        0.15645008593079535,
        0.12139102690381674,
        -0.19791856877731856,
        -0.020329380396418104,
        -0.42049872519089465,
        0.46440799349909917,
        -0.3332992455853086,
        0.03597229842858193,
        -0.11814367685181394,
        0.6247872994738891,
        0.1798073386756101,
        -0.02296045953069429,
        -0.3177182354088231,
        0.25017412469485795,
        0.22001577012304968,
        0.21190413731544533,
        0.2567268428111636,
        0.32431785428288895,
        -0.34083543740535005,
        0.4399673351070624,
        -0.46920968511179345,
        -0.14639071227450853,
        0.24532124730303687,
        0.36275785136109706,
        -0.40124058459462625,
        -0.07719930572970728,
        -0.06117918605682395,
        -0.23098716711677297,
        0.09310699810703454,
        -0.15038562716573184,
        0.10826835842948515,
        0.08053998010074277,
        -0.21765712794405118,
        -0.36596032249387545,
        -0.36027340601960034,
        -0.13587478470433106,
        0.47240676461518455,
        -0.06280559717896336,
        0.4217443639548752,
        -0.2631833192375669,
        0.2707520268155204,
        -0.2612362042720392,
        -0.10870176523917638,
        -0.15163731362361324,
        -0.32106508208629264,
        -0.24436473248248317,
        -0.32343059988893685,
        0.3431427574395441,
        -0.1676422567872837,
        -0.0480710920244172,
        -0.3452833369780794,
        0.3395366831506945,
        0.3739649354924598,
        0.770467885750675,
        0.721213515353522,
        -0.18149454589330333,
        0.4416450967115904,
        -0.1293563013886364,
        0.18451976303051235,
        0.7562977015716308,
        -0.3726353120956474,
        0.3908188690743666,
        0.23471850660797314,
        -0.2728812251386862,
        0.13876609166950404,
        -0.5361499708831169,
        0.1071179901867935,
        0.10310384251183699,
        -0.009458559376900324,
        0.28141148152714135,
        -0.13118651176596777,
        0.42158274256894235,
        0.1113389978643309,
        -0.02750661362778102,
        0.6787700811682126,
        -0.011540679668708167,
        0.30505771919641705,
        -0.04134111076374479,
        0.05870976021275975,
        0.24841486214808112,
        0.25079157428113213,
        -0.32905433439451565,
        -0.2903330925628814,
        -0.27256638275983086,
        0.3960516776136307,
        0.3445930976212403,
        0.19322863396644677,
        0.37442580889763244,
        0.2587427720246288,
        0.2580185131357439,
        0.11526514587914345,
        0.39072299333145516,
        0.3516920045517695,
        -0.30460030590901205,
        -0.21679903419808497,
        0.17603638866688157,
        -0.3427630084274148,
        0.07070629631714868,
        0.017001837235692846,
        -0.37619036103060655,
        0.4005438728852905,
        -0.07830220934784177,
        -0.034453641337726444,
        0.27044408603560965,
        -0.2307887460494814,
        -0.14153361242816723,
        0.3894123683519818,
        0.44741257123005157,
        0.4593046427010719,
        -0.07592194467526438,
        0.44731337120588477,
        -0.4836355504373003,
        0.010382106983731822,
        0.516003764397334,
        -0.2925665529392231,
        0.4187447659177327,
        -0.08286787264930001,
        0.13277666889238368,
        0.4452988983863934,
        -0.3687923237065271,
        0.17336799291621724,
        -0.4012158999393233,
        -0.35970616404079037,
        -0.2962216726386127,
        0.16023702385742888,
        0.7417531896180736,
        0.2727955075006969,
        -0.10374484468557771,
        -0.2122636375627313,
        0.19560966607628166,
        0.5460457121431697,
        -0.21802422538240995,
        0.28276656264983124,
        -0.15278833109106527,
        0.11127781424257906,
        0.07513245471727674,
        -0.3883939911396257,
        0.27437140612678235,
        0.2319314976811438,
        0.43956258888551497,
        0.1960986685505673,
        -0.09994387371006513,
        0.1362198902419241,
        0.13599114102672197,
        -0.14456758279216458,
        -0.23371995029129503,
        0.02091846878914063,
        -0.3286064674086001,
        -0.6485549628700503,
        -0.27577081181789387,
        0.24950031882137785,
        0.34451068130651924,
        0.08605560765906442,
        -0.019341823715982087,
        -0.7058411110317074,
        -0.07836381516716258,
        -0.41450014840763566,
        -0.23470885887046145,
        -0.3422371492513676,
        -0.4544889004421673,
        0.15944763012311264,
        -0.21214260990622358,
        0.053347987918425314,
        -0.046028278786981854,
        0.17579610548668506,
        -0.4084263480852159,
        0.23914486833059356,
        -0.3189274450489052,
        0.13454176601495482,
        -0.11998996122762559,
        -0.3205261679280294,
        -0.4860676438975358,
        -0.3371987432324236,
        -0.22434370015109253,
        -0.42359438311722153,
        0.6362618613502307,
        0.03423725680148101,
        0.4769866194430364,
        0.5151113605024762,
        -0.3437993447678452,
        0.3411368686558357,
        -0.07267338576704986,
        0.05605364964171634,
        0.4815813581541171,
        -0.05115153539573935,
        -0.3370234802067124,
        -0.16587904437841977,
        0.3668271883535556,
        -0.23293105917858148,
        -0.2649999863189203,
        0.17386258073229063,
        -0.29947707361048687,
        -0.4280737702302275,
        -0.2069550913517644,
        -0.12994448273482492,
        0.5167517062506584,
        -0.29780150921453497,
        0.22959554110443445,
        0.31035363311192704,
        -0.19396873315637891,
        0.33700346470710807,
        0.24337664087411642,
        0.4301827660565062,
        0.4285724295889261,
        0.539142452973122,
        0.06273155655641602,
        0.18634225190297965,
        0.4302543936010362,
        0.16002080727979567,
        0.12399571851752103,
        -0.11200252447770388,
        -0.1409044014170259,
        -0.260245602093428,
        -0.14849646796726476,
        0.4841792608209493,
        -0.9183672242529682,
        -0.2623919295981869,
        0.42090326069481737,
        -0.23264064144585028,
        -0.6085792551820447,
        0.09155847856493377,
        0.003970853169026559,
        -0.045112396519653306,
        -0.369376079790062,
        -0.5257428090542157,
        -0.28833020078247945,
        -0.33713550162745753,
        -0.0495724321053746,
        0.08382848711241117,
        -0.5176566323745431,
        -0.19657561116306388,
        -0.21777814988992758,
        -0.2410267806097555,
        -0.22519750856784596,
        0.024346401689955208,
        -0.07345613768510648,
        0.24957881904021664,
        0.24502554321330428,
        0.05961171576826324,
        -0.14988579419482165,
        0.004248492983448603,
        -0.09274688696698952,
        0.15738045436695472,
        -0.36079225683433735,
        0.24715781007140217
      ],
      [
        0.3503992487974016,
        -0.2655240521593988,
        -0.278775512003401,
        -0.07803427899057486,
        0.451992748235255,
        -0.2941578486810591,
        -0.18803311912507684,
        0.24937553861243422,
        0.4688751251988142,
        0.27110278895331463,
        -0.428781107998004,
        0.3501702583329167,
        -0.39766598119236907,
        0.22775791292587483,
        0.12330289229293784,
        -0.19027631414938342,
        0.015396471060348428,
        -0.3400401831782104,
        0.17198503453434508,
        -0.48074859571275463,
        -0.026437028396013557,
        0.20596627965521064,
        0.3863069253772459,
        -0.36046255863839993,
        -0.15696178047121473,
        0.1025588992628852,
        -0.4460702551072409,
        0.09727766407750102,
        -0.495921691936088,
        -0.6050009300997952,
        -0.251882492215412,
        0.22768079395978127,
        0.05482617558621866,
        0.15888832128495192,
        -0.7524462799733104,
        -0.6959325519574682,
        0.3772822874819054,
        0.5156927943139651,
        -0.06082303748121071,
        -0.07044954706576044,
        0.19187542827160076,
        0.006276947236493902,
        0.417740113020393,
        -0.5002406588135383,
        -0.21839331066702886,
        0.1034290108023778,
        0.08008878434755616,
        0.5617129008847678,
        0.3677553745464877,
        -0.09471925624136335,
        -0.4092051329108712,
        -0.1858422470561622,
        0.3198525119269752,
        -0.38469516105097074,
        -0.26138235355735023,
        0.2605055671454426,
        -0.05372351463555741,
        -0.05257651847215473,
        -0.07330466578837763,
        0.25676655927899183,
        0.3744823440336783,
        -0.07642479142894944,
        -0.2564408365459192,
        0.12746941877306311,
        0.5806436623051383,
        0.26868786002098427,
        -0.1900001595442202,
        0.018842324950997743,
        -0.38638755009892745,
        0.40839252441396706,
        0.327219132593014,
        -0.31851762974016173,
        -0.04283869617953782,
        0.16324169519571233,
        0.061720785531731305,
        0.2858068184821182,
        0.11149248618523876,
        -0.16029432906634203,
        0.04413946404200336,
        0.33997216959732784,
        0.21243268015313876,
        -0.08160279260130056,
        0.3032759454457591,
        -0.44307992009442904,
        -0.4405975240683835,
        -0.4717606253187475,
        -0.003266121249067575,
        0.14001480464746155,
        -0.13950519303660527,
        -0.6837088726782669,
        -0.1217099833129776,
        -0.42713696430544984,
        0.3149622104610724,
        -0.4350741001957801,
        -0.9759557583966295,
        -0.18421338074396978,
        0.00988611472888381,
        -0.38627148418608703,
        -0.8859753089901851,
        -1.1093214578637243,
        -0.5123080835639391,
        -0.02266640720852421,
        -0.15210140787095144,
        -0.6243630661137566,
        -0.4064429632477406,
        -0.044088851265214654,
        0.4573367559192538,
        0.078859792400986,
        -0.3824213385521209,
        -0.5105900470118351,
        -0.04208217567736901,
        -0.2247430222008904,
        -0.1692131128006604,
        0.5454709661322168,
        -0.09304220728903209,
        0.21283211011424424,
        0.19308830978484892,
        0.22231837774006982,
        -0.28599438137559957,
        0.3990287030876797,
        -0.5396714079547814,
        0.25021113409048046,
        0.10639761994806946,
        0.08410820911503632,
        -0.33548416624586397,
        0.8448098764201802,
        0.09949189236920869,
        -0.09654390475383028,
        0.1334220875912404,
        0.11200546364103048,
        -0.06556391903626269,
        0.14727666959503152,
        -0.15770262847440347,
        0.2664226919664918,
        0.05054869462359663,
        0.15437871410691784,
        -0.08178549434602443,
        0.3946805200047977,
        0.3783013365583827,
        -0.07492353562925029,
        -0.3733984432205957,
        0.06422186534996777,
        -0.3488803831679175,
        0.01800183350009704,
        0.39607321208102714,
        0.3502875710586935,
        -0.44712214250819493,
        -0.41803410025292,
        -0.12107125206280438,
        0.2733367260857894,
        -0.485642206617175,
        0.3524171662057497,
        -0.31655226029678973,
        0.14728378521091454,
        -0.4955641394566541,
        -0.17779884768728468,
        0.23036689184457762,
        -0.2675784735792518,
        -0.0172034586211932,
        -0.1009970861092368,
        -0.002145171082092857,
        0.12407570225782363,
        0.11810627899692572,
        -0.7714940523943379,
        -0.859692163060792,
        -0.4572595445986497,
        0.03664758200105407,
        0.23437765397181654,
        -0.04484617218023289,
        -0.6031367666748084,
        0.15794720242937976,
        0.06592040605366974,
        0.14231378621657761,
        -0.37346184078041195,
        -0.16283406993478935,
        0.293156713989594,
        -0.2505447957051619,
        -0.05803652667862172,
        -0.26153725307779463,
        -0.4297209224852118,
        0.17354164250314943,
        -0.2726440394736618,
        0.23658507050991154,
        0.18255572822534352,
        0.16203150319659088,
        -0.2281207848781826,
        -0.22045029977567737,
        -0.20438849039201504,
        0.3735344513201133,
        0.3253699550182972,
        0.21430246640088957,
        -0.2247187286221134,
        -0.6613071486384523,
        -0.5580951302087637,
        -0.5553541047476647,
        0.5396620389351124,
        -0.4295845613698127,
        -0.42973573480215604,
        0.0004890247012408628,
        0.08597159720143292,
        0.08576961816946144,
        0.41641731994482634,
        -0.2548037417405526,
        -0.23869494156593676,
        0.1449795500313515,
        -0.31865530680630394,
        -0.3859277598949582,
        0.05229585409086822,
        0.31779127093195025,
        -0.3550568741605604,
        -0.36121811631086054,
        0.0015228469950374609,
        0.10264898175376878,
        -0.42491470257428987,
        0.19897151011882752,
        -0.24801932524845677,
        -0.14055382416672094,
        0.255583472299172,
        -0.4616215671013468,
        0.2278873895072924,
        -0.5124635242885586,
        0.2187354038334086,
        0.39817848563931185,
        -0.21629956751522605,
        0.11960489945201773,
        -0.2018339356831882,
        -0.1081053560043655,
        -0.052355039267502915,
        -0.567823340956451,
        -0.3003714819596753,
        -0.40434822045873253,
        0.4570043695192256,
        0.3030194104067328,
        -0.34637373897545953,
        -0.10761148673955374,
        0.3291067834304695,
        0.33079899407056984,
        0.33702325431896785,
        -0.2547775171126063,
        -0.2827740422924126,
        0.2827302182902265,
        -0.1796249922319584,
        -0.02502551699960134,
        -0.2189854792632577,
        -0.22079263189131182,
        0.25637509083664656,
        0.4156813689394717,
        -0.08935313579168512,
        0.6989890628434166,
        -0.03321050435409458,
        0.5796756882397864,
        -0.041206780699575105,
        -0.16978454531875187,
        0.5894856951667655,
        0.9330831775766091,
        0.17318182120406003,
        0.09655240350434216,
        0.5040881509181502,
        0.27852424069984727,
        0.48519254353297936,
        -0.5415013642873088,
        -0.4718715102728615,
        0.3064479221749916,
        -0.1754883515255787,
        -0.28040290216057473,
        -0.34524167864506367,
        0.23473314884217944,
        -0.12776812319769515,
        -0.2124012854462019,
        -0.12774814883063876,
        0.2975774078756583,
        -0.09773513595379821,
        0.34331505780582683,
        -0.12716253359724766,
        0.03676025830200333,
        -0.4370253972492135,
        -0.4892572374877132,
        -0.5218324536844859,
        -0.4890760478231115,
        -0.20560123468140362,
        0.13256668654682394,
        -0.42445117614673944,
        0.07045438078651187,
        0.410643877450318,
        0.23771748177205204,
        -0.124789463705461,
        -0.45097734598273365,
        -0.2539321350677089,
        0.48146793994591586,
        0.24886666394913878,
        0.050188800411165704,
        -0.1165669892568747,
        0.16617199264783375,
        0.4212511779184155,
        0.1705687858818564,
        0.3104355974029719,
        -0.11179832995011268,
        -0.35707429468397656,
        -0.42315008113905794,
        0.2316157464400181,
        0.2464548367652293,
        0.3524465355842056,
        -0.3426211180486946,
        0.30441795289491963,
        0.24634776844517606,
        0.02501000872677681,
        0.06294633437709131,
        -0.09361584130076216,
        0.3129928146440268,
        -0.09929156429328279,
        -0.5137342333151287,
        -0.26836722076684466,
        0.2501651155206513,
        0.007049088490750323,
        -0.18069646234933137,
        0.5557146876389387,
        0.4119189066322465,
        -0.24470750874613661,
        0.32279877970287674,
        0.3848054360576511,
        0.4412003858385089,
        0.05531531547456239,
        -0.03863869030738852,
        0.36473945533555363,
        0.9449071080060266,
        -0.22445013978463269,
        -0.35168037199121943,
        -0.12128532840678188,
        0.1967709045949826,
        -0.1421704621192874,
        0.10477257981507722,
        0.4418169015216682,
        -0.235665113213378,
        -0.28054861435599543,
        -0.26123550908593574,
        -0.2152396675224419,
        -0.2544769636131827,
        0.06720112144627245,
        -0.011653161511707142,
        -0.5208091742358416,
        0.24634175809631564,
        0.3137363340688959,
        0.34351640906436015,
        -0.6435872912332552,
        0.14720395771253486,
        -0.018977966753006215,
        -0.48114923751095295,
        0.3723755142087392,
        0.04126923107357698,
        -0.2326702663458543,
        0.27446410040283503,
        -0.370487165404481,
        0.5036997788118976,
        0.3368023130084423,
        0.30360614668155184,
        0.09908892120827922,
        -0.4644682879271359,
        0.1617039823032837,
        -0.31759267421103093,
        -0.03475306351021103,
        0.4666910959556934,
        -0.19372631425164685,
        -0.3793416603575927,
        -0.3537162004818038,
        0.4913080318858139,
        0.03167601932697894,
        -0.06918354239313668,
        0.03488330292301188,
        0.23030479085774855,
        0.19561520853146216,
        0.04596656101934885,
        0.3713404132461602,
        -0.42634716017266366,
        -0.014656948487050457,
        0.7642983149015211,
        0.3673457186567603,
        0.48415696337329206,
        0.06269725845899812,
        -0.25052931173775955,
        0.3722369480046798,
        0.08816150222656158,
        -0.4708279541197906,
        -0.1866242030956959,
        -0.029192985109707213,
        -0.3279381872722513,
        0.7038725350185011,
        0.028038739344793184,
        -0.33029193626518466,
        0.7437216041457577,
        1.0095955146234812,
        -0.03154779161372438,
        0.4654915347168541,
        -0.24831051148900143,
        0.06064544981921728,
        0.5248747824582034,
        -0.1937425841482929,
        -0.20014575607219262,
        0.4164844008655228,
        0.026694470409290797,
        -0.1461348305576734,
        0.11689448730844562,
        -0.445948516053736,
        0.1865908690761405,
        -0.023981633791524324,
        -0.3821753623873339,
        -0.40666699438065634,
        0.11283583583723789,
        0.1499471638112399,
        -0.44199988224175357,
        -0.6229427151012823,
        -0.4514396156044271,
        0.36534764013997467,
        -0.40223892490401925,
        0.2726887580389996,
        0.04962657137930494,
        -0.2743781086952003,
        -0.4079910874315017,
        0.007952048460221545,
        0.39566296023837694,
        -0.49769485477329306,
        0.31554403213626026,
        -0.16205101384991585,
        -0.08381493495797145,
        -0.350879369392541,
        0.3298027067795256,
        -0.2128439299173764,
        -0.39841074104702456,
        -0.28457616399147717,
        -0.36593346791353837,
        -0.0685960743126779,
        0.6154662642583549,
        0.1431472381542108,
        0.00419962214794315,
        0.39246188574238233,
        0.07420670811859205,
        0.4319693914209927,
        0.2997013805209837,
        0.23813719995638227,
        0.4314215808597046,
        -0.11266348340360206,
        -0.19202392204403396,
        0.19899024868920817,
        -0.11272701147872434,
        0.1326732468621806,
        0.3409700349330344,
        -0.5831536668263758,
        0.4448218074671001,
        0.4141885225258394,
        -0.36938849027810255,
        0.3002229425499378,
        0.05367200788507987,
        0.3675270580329522,
        0.19277412818578282,
        -0.07557851569572704,
        0.5763124246816757,
        -0.205739952938111,
        -0.4586841084890697,
        0.020745466244564248,
        0.24834496081505666,
        0.6037248465527567,
        0.5528243166182303,
        -0.4760335009254997,
        -0.4137486822714211,
        0.05585145679899992,
        -0.26511382159558106,
        0.196492831306895,
        -0.19421980545622125,
        0.17725372958419455,
        0.020688383473895445,
        -0.15104250826613688,
        -0.3784617679562719,
        -0.00562276995158136,
        -0.3374355483386979,
        0.08508721850571446,
        -0.4425910218321415,
        0.20768050249234143,
        0.38389138044320004,
        -0.3927484321190471,
        -0.615500306498238,
        -0.051853686359130624,
        0.17375870855940606,
        -0.44592705108679154,
        0.4315977736710902,
        0.26896962629204924,
        -0.43300730926498904,
        0.20208541184144713,
        -0.09370613633458784,
        -0.24546077964039792,
        0.18632294699035162,
        0.23342559204637547,
        -0.04952322971382188,
        0.3514297064143611,
        0.13402217993800833,
        -0.49148367171208207,
        0.2845345593355175,
        0.18106241393600003,
        -0.011944915007592224,
        0.06333547216113117,
        0.16280081428808027,
        -0.2378036741717227,
        0.6671630618401008,
        -0.18648869898688494,
        0.08041605070989845,
        0.7479973900645945,
        0.6072971396797915,
        0.5656812539621711,
        -0.46900164557703483,
        -0.41194994577208827,
        0.6441694211549451,
        0.7677035970872984,
        0.060895438078709827,
        -0.469138893403679,
        0.331759173927804,
        0.5727125951028035,
        0.584680474864858,
        -0.6303644706708565,
        0.06691547947997604,
        0.10280462420967414,
        0.21946044665744946,
        0.360194463575752,
        0.08291207866751046,
        -0.01675286931107115,
        -0.43821530508275564,
        0.3607494173605788,
        -0.17083705643852304,
        -0.09838083786713489,
        -0.20926386396200292,
        0.024599947461356946,
        0.41176927110812495,
        -0.14030252876975344,
        0.23656218682489843,
        -0.3267769587966735,
        0.053245074815450016,
        -0.3367128993804744,
        -0.06653306767075705,
        0.0189177603403648,
        0.41157012483935895,
        -0.08446771983847888,
        -0.4582946809239568,
        0.017425894538059563,
        0.1322525226236093,
        0.06138898381783598,
        -0.3351569095018496,
        0.2818500546006861,
        0.1492598032559954,
        -0.2569624560250816,
        -0.39085021000896547,
        0.18277838474087077,
        0.01946195189483498,
        -0.4547032612407942,
        -0.3496375145096179,
        0.4239228216821781,
        -0.2362093368523235,
        -0.2378924232117909,
        0.15541080663137255,
        0.03352259626562061,
        0.0857933011874333,
        -0.37193050317081877,
        -0.1952963301424329,
        -0.46378826856167643,
        0.33120649439819005,
        0.37378413469420946,
        -0.1329908251372206,
        -0.4401966057453029,
        0.24148147018654917,
        0.14069144120049532,
        -0.4388149293153709,
        0.4009399946874988,
        0.023801398429851715,
        -0.05210630505608632,
        1.0170892980004456,
        -0.3572133065883253,
        -0.3587248008282601,
        0.29729076848870195,
        0.3179184664828544,
        -0.2538744839743376,
        -0.13986884753547496,
        0.27576669997947517,
        0.48203691494918427,
        0.6699276864177739,
        -0.18725242885209534,
        0.20152876081062635,
        0.47450424126062746,
        -0.20879120397362402,
        -0.24938220295549213,
        -0.16654602045677241,
        -0.33779040928133386,
        0.12432067820641551,
        -0.18887121518839922,
        0.3749009571417006,
        -0.2751368090828167,
        0.15491566928332431,
        0.3083706364190087,
        0.05976856804719497,
        0.756275315276939,
        -0.6395904395774541,
        -0.4496536938104753,
        -0.21194770662551726,
        -0.41614938365477167,
        0.39351950284205095,
        -0.13674554638315053,
        -0.2231992452811845,
        -0.012627335520937618,
        -0.7718600910290918,
        -0.4259794278107628,
        0.0957166637061722,
        0.3477690553753304,
        -0.05267442196293288,
        0.20074084156855695,
        -0.42060172593681144,
        -0.2395313481149675,
        0.21658765094360657,
        -0.09619218612125423,
        -0.5915931516957256,
        0.04411769472880532,
        -0.5331685182718271,
        -0.1351875492996551,
        -0.3689196744522133,
        0.07836093038686301,
        -0.19749663487322375,
        -0.12416402749386199,
        0.5112617964626307,
        0.09728943554807509,
        -0.31889466051287896,
        0.12215865397064324,
        -0.4141852167675945,
        0.0010925966693036773,
        0.030240801181823616,
        -0.3434676293826907,
        0.33415706456788774,
        -0.21618278136829808,
        0.2116685459094255,
        -0.12181611643951151,
        0.38854360153319106,
        -0.14656274347804377,
        0.5382748577379695,
        0.36308834955470093,
        -0.1621857724234216,
        0.6695081841966901,
        0.22169186478982833,
        0.5822637144189945,
        -0.33745945586409465,
        -0.10718914530472444,
        -0.16580146385228492,
        0.19331310961415574,
        0.3551469761155581,
        0.18067367417511473,
        0.2838375608694932,
        -0.059722720159736425,
        -0.25126539509595214,
        -0.3792148915156032,
        -0.11186168516065437,
        -0.040272426309452554,
        0.07145934358117015,
        -0.09798335824188195,
        -0.42053970005908814,
        0.14841966584341523,
        0.24031652151765293,
        -0.43003190604353564,
        -0.0698119438067894,
        -0.3487142725525039,
        -0.009291098353189763,
        -0.034152925005486424,
        0.19044285955752877,
        0.45733217146338395,
        -0.31029390132475715,
        0.2989803254628636,
        0.6007416346173272,
        -0.32599145223422865,
        0.5770656792811861,
        0.21845391629972902,
        -0.4004629151724128,
        0.353836865173278,
        -0.42050510273064523,
        0.15348179237951165,
        -0.23045157271117955,
        -0.24152583277733886,
        -0.20980208677615442,
        -0.6461528874732919,
        -0.31169656352804426,
        -0.05052471788143872,
        0.4885044918520657,
        -0.30563079557750317,
        0.283398934190896,
        -0.20220590998407853,
        0.16701197200347867,
        -0.20321978413470537,
        -0.12308125776931615,
        -0.6505287065215681,
        0.16919425055156842,
        0.2859771758705774,
        -0.4356862517926867,
        0.13212915845314696,
        -0.5336350614554054,
        -0.08729978099860904,
        0.4016761206052046,
        0.035042310633374193,
        -0.2773689576566768,
        -0.05400698034400548,
        0.1483400155849797,
        0.1895406004078745,
        0.25268196726648906,
        0.21933015671137696,
        -0.15083321017636886,
        -0.32021882919050837,
        -0.26871014624615275,
        0.4026527989371832,
        0.0377197590761298,
        -0.2997594023907794,
        -0.1650633917011778,
        0.11864882318053892,
        0.3803629778927461,
        0.4752967618576233,
        -0.222090034326029,
        -0.2847240533818573,
        -0.5015470154319235,
        -0.1863323598877688,
        -0.3511725239594365,
        0.10069079902042385,
        0.08168839831703882,
        0.2277562719202487,
        -0.3157935427477676,
        -0.28861372018349624,
        -0.07350163719508089,
        -0.49964837405952134,
        -0.4882239536783669,
        0.12207995424537567,
        0.045805013083784756,
        0.5040404873295947,
        -0.04616580450881075,
        0.6134586909934121,
        -0.2761198955534766,
        -0.11255932211611336,
        -0.07066752049079197,
        0.8723474197576541,
        -0.20043707669645486,
        -0.30963734955593786,
        -0.24291160199314316,
        0.5569458986382829,
        0.7041641211613928,
        0.06670473062631542,
        0.0916908232404819,
        -0.44099814067811766,
        0.48029943658414115,
        -0.1342246803943964,
        -0.47571889515257676,
        0.05629136433712199,
        -0.16184628174325486,
        0.31361595188018465,
        -0.17462303163588616,
        -0.5261862996202363,
        -0.23020866214412178,
        -0.10696670980522509,
        0.10268848793492592,
        -0.33352543000932044,
        -0.11967720068336063,
        -0.2824949356601725,
        0.34177779769371985,
        -0.04657433106898743,
        -0.029696587462931957,
        -0.020804189570154556,
        0.08314092422979882,
        -0.45416981560955905,
        -0.635891552894813,
        -0.49132052784572744,
        -0.3475592765036042,
        0.37893573983731366,
        -0.3732780766269433,
        0.33977054694552766,
        0.284282959242311,
        -0.33933158251709755,
        0.4358082678907601,
        0.18191413265740683,
        -0.16690447314917037,
        0.0791432107455834,
        -0.11607730567573597,
        0.3738807202513932,
        0.05446090701826446,
        -0.5386614008857311,
        -0.7208085189208776,
        -0.5995913367386547,
        -0.030958129390925085,
        0.3904957259148771,
        -0.14717016390141777,
        -0.2853763673196468,
        -0.3142516478982926,
        -0.0614951662057697,
        0.2526228260677942,
        -0.8773867928612312,
        -0.35163994686438493,
        -0.26135342238730414,
        0.4915668216683936,
        0.2531140275814966,
        -0.01944261013066507,
        -0.5093895583784749,
        0.13817117545840438,
        -0.11621037725441795,
        -0.20957994947527345,
        -0.08123596912061928,
        -0.43456053121686256,
        0.4741126647379634,
        0.3642709121526785,
        0.3332456857326383,
        0.2280974482500737,
        -0.21192164063487917,
        0.07179288647280244,
        0.10991749331644213,
        -0.34459492954748,
        0.5049323101802999,
        -0.21955230913170345,
        -0.22297330217819591,
        -0.10049637839301934,
        0.4927582938059962,
        0.44573153501421625,
        0.7264044030332831,
        0.04824697418023279,
        -0.21189482295445278,
        -0.0031034032581053563,
        -0.20186193631018867,
        -0.42972295187346826,
        -0.4015537557276024,
        0.05974993305191059,
        0.03575496544001276,
        0.13647908913308635,
        0.16418879507876946,
        -0.030271796034888426,
        -0.35246398165651516,
        0.34016436769954705,
        0.227455087923831,
        -0.2339932641400213,
        -0.5386779935766438,
        -0.2036257981578157,
        0.37422079663638425,
        0.394497823745641,
        -0.3323509147717457,
        -0.3735664006937591,
        -0.3562006000712723,
        -0.271019858757073,
        -0.0025842389569043713,
        0.10717967633668059,
        -0.3860967109108644,
        0.3247832672802038,
        -0.31244149359359796,
        -0.16237027481439073,
        0.057817995357607475,
        -0.3440181802027507,
        0.48755854547850697,
        0.11099985151073337,
        -0.6126099227745155,
        -0.24114605077145032,
        -0.07830627835209107,
        -0.09015106122575363,
        -0.3578827639748438,
        -0.24589956122692988,
        -0.1589922651064521,
        -0.30173035318540264,
        -0.023238743458883455,
        0.4147403141628621,
        -0.20237289132229688,
        -0.48441261089132237,
        -1.0156525853294796,
        -0.38131372492256327,
        0.20989701265069158,
        -0.4874715449951898,
        -0.0717289569285578,
        -0.14443112308517098,
        -0.047553336299677215,
        0.4289523205752603,
        0.22939412657144184,
        -0.5993688255576294,
        -0.1390543920391044,
        -0.048369614356770015,
        0.31202896820695447,
        0.10357391321816439,
        0.15590741468134187,
        0.6024861199306243,
        -0.5043358541673982,
        0.4233504723023825,
        -0.2067424486312545,
        0.5885116324859164,
        -0.5074313486204018,
        0.19120300543694396,
        0.07896676389978831,
        -0.2155626135841311,
        0.7097930075864218,
        -0.3775790260117996,
        -0.23315285989223417,
        0.12088066752212762,
        -0.5231096523186637,
        0.22502780817805063,
        -0.5916270796388167,
        -0.048649616357210476,
        0.0295690414122883,
        -0.3241339625724085,
        0.1361204229401033,
        -0.3514302807323826,
        -0.17632893280301942,
        -0.22375348662475594,
        -0.12628327133118966,
        0.4636805560515596,
        0.06333627594881114,
        0.26581200737175237,
        -0.2064021846535727,
        0.042704504704483705,
        -0.2985928506948765,
        0.3013634567711737,
        0.5121570062990319,
        0.0779875677063028,
        0.18774701887570472,
        0.5389427306908351,
        0.41684615834332567,
        -0.1851845825684217,
        -0.10481288198045179,
        -0.07915140196386834,
        0.019674229039740945,
        -0.026859724036155185,
        -0.3396671550989916,
        0.29634067139394327,
        -0.23018132699192814,
        -0.888175087135507,
        -0.6638497181426953,
        0.2501339653920238,
        -0.046501992722527655,
        -0.6492169192094313,
        0.0022716838276227867,
        -0.12913777084849196,
        0.2245422253211313,
        0.4080806081204931,
        0.38965130820509136,
        -0.28214691685184207,
        0.07658813529951938,
        -0.11920265357560772,
        0.35922683973192715,
        -0.27954166607903363,
        -0.29620245233859593,
        -0.21230161463294311,
        0.5139729843876777,
        0.24959553487653938,
        -0.5611671647570754,
        -0.3250606432765441,
        0.36903615421141517,
        0.01181057627510572,
        0.3256998623215763,
        -0.3391625011375049,
        -0.4312153357852626,
        0.4962392198832674,
        0.4700441733045823,
        -0.4164703919214377,
        0.5672007883236522,
        0.4433473730074461,
        0.056909322439574,
        -0.015748298066933324,
        0.14143052187561145,
        0.598763671636392,
        0.07636503047480382,
        0.43287139827049503,
        0.12757247483199297,
        0.22842513742852863,
        0.3131002795530152,
        -0.04410288317858355,
        0.2889182206612425,
        0.1891529647218296,
        0.2855442828410674,
        0.49368607771459894,
        -0.028475300547276833,
        0.27488479866963755,
        0.432634616087861,
        0.42990656144448736,
        0.6558719814935002,
        0.5275735507566047,
        0.1910321255595779,
        0.48818053772857994,
        -0.17947107464060708,
        0.6235517482378575,
        -0.05550573116323889,
        -0.08895527272579985,
        0.42413783377849734,
        -0.25656740176545034,
        0.3561082040826429,
        0.18016512504914564
      ],
      [
        -0.18358833710408767,
        -0.18053553580552656,
        0.02697185713597213,
        -0.0985975481259743,
        -0.1898492736313408,
        0.19486774735728593,
        -0.04070434861311107,
        0.25949105768208475,
        -0.33944165158104117,
        0.2808432178071584,
        0.08766640860148034,
        0.08558931546827638,
        -0.081134511290657,
        0.26571539892402507,
        -0.01845070251844972,
        0.08658543564435764,
        0.1498997029687169,
        -0.29057095365352276,
        -0.028708118504196294,
        -0.054917686893131146,
        0.3184352374224858,
        0.3741502695274891,
        0.38967981943935887,
        -0.10285664916843693,
        0.25548684754080714,
        -0.37773063547260427,
        -0.1409147960529902,
        -0.19135182447390833,
        -0.38786022045801055,
        0.04044236820804052,
        0.333313963746736,
        -0.22630976780129208,
        0.34557698196997727,
        0.3820556427111577,
        0.5231407070318125,
        0.8910458332312168,
        -0.03514901186250609,
        -0.24716591039488336,
        0.020450892902157135,
        0.6803483689374226,
        0.5485013906621574,
        0.07638801663326399,
        0.30254179961840044,
        -0.007174935825911521,
        -0.23380445446861597,
        -0.14861668723712457,
        0.028261840352345125,
        -0.005182205085147191,
        0.4762240896837702,
        0.40553522575993683,
        -0.2616124484886207,
        -0.062053962615441195,
        0.6003097065423985,
        0.1163872635337776,
        -0.33060787179498685,
        0.06954019655612412,
        0.35203788505669104,
        -0.18630346220997634,
        0.13978036279930034,
        -0.18736547073236104,
        -0.4225624996877787,
        0.14390100968061034,
        0.04050413278081273,
        0.27106645143908153,
        -0.4127955643207669,
        -0.2887326308041998,
        -0.0881104956519219,
        0.26791586353602304,
        -0.26980103541079,
        -0.1150836408194315,
        -0.0650726297360655,
        -0.5565414001292612,
        0.3066279054133056,
        0.17320043708753968,
        0.4021415817740045,
        -0.37550377718466565,
        -0.34680482526709666,
        0.2582001366819304,
        0.0921623366038687,
        -0.30191252304440425,
        0.3448283025900851,
        -0.4077550927649106,
        -0.23631744817260525,
        0.054320185162740314,
        -0.55510439502136,
        -0.3724468297638643,
        -0.09090647523700474,
        -0.3174328126545456,
        0.13334835003055656,
        -0.34989087852703954,
        0.10225075691984947,
        0.34732030153455756,
        0.4276379426670637,
        0.37424325891330784,
        0.045017738531262404,
        -0.1128273573105353,
        0.3104432949080058,
        -0.20552742905185242,
        -0.02071529491359662,
        0.31743917309638015,
        -0.21672685601643957,
        0.1853145287498803,
        0.45748320124318476,
        -0.3651581769379186,
        -0.14018347005546858,
        0.19588910196397852,
        0.35696838960497446,
        -0.08839466426363028,
        0.21360473702397964,
        -0.16017541263912166,
        -0.02336935303224586,
        -0.29832898632498905,
        -0.2718161109388408,
        -0.28623436366865723,
        -0.14793143433116074,
        -0.08443535402178715,
        0.34091156191666877,
        -0.22973551626732647,
        -0.05403645806240645,
        -0.12711665825517024,
        0.053486376086462784,
        -0.3577561568559642,
        0.4315594081326884,
        -0.19804220082492588,
        0.4077259122838079,
        -0.3260213047252709,
        0.12293743533528727,
        -0.2842612026206559,
        -0.4750151983587619,
        0.11168076359428074,
        -0.028065731895965382,
        0.16294554668629155,
        -0.3368983230279626,
        -0.25850918000106193,
        0.08364520694939621,
        -0.7615027971666561,
        0.18936445317086725,
        -0.3821492539444349,
        -0.2477706008256575,
        -0.46151009182541547,
        0.30065889551125596,
        -0.4638800869274811,
        -0.3216936947516506,
        0.08114326449216443,
        0.012726643646491986,
        -0.23101235098649797,
        0.04063596681063402,
        0.13497201394135933,
        0.10848501808712441,
        0.16506901777308883,
        -0.10964519878769009,
        -0.09928823693482648,
        -0.014387005554652393,
        0.14140548948780415,
        0.4857695954513615,
        0.5040179961568975,
        0.14657478531926635,
        0.38140237444718117,
        -0.30704218868358846,
        0.30490264493785174,
        -0.11031298724733657,
        0.2183933440630587,
        -0.42136641943695563,
        0.6270973326257343,
        -0.2003583780218973,
        0.5966317737099441,
        0.4707700344710884,
        -0.23358611758619682,
        0.2567411925875519,
        0.050877950340362806,
        0.17326604912897406,
        0.18904768885192028,
        0.2854464746086979,
        -0.1753339415771313,
        -0.11659970648562538,
        0.3772545143346628,
        -0.5013904361396746,
        0.5469914989205095,
        -0.01188092687380436,
        0.11838427561597972,
        -0.15773761906713166,
        -0.48042745443583224,
        0.20191219120029985,
        0.3077966686006721,
        0.005714898042737744,
        0.4769605619685235,
        -0.019710291766524415,
        -0.3678508692958126,
        0.4497835806686305,
        0.07128363063326655,
        -0.27340633263645175,
        -0.44538301343169573,
        -0.222006942720989,
        0.292753117084424,
        -0.15685760047978559,
        0.011184919545105788,
        -0.3769504279493038,
        0.21485243006450902,
        -0.01129110572222892,
        -0.4059043729839384,
        -0.48790454978305625,
        -0.2931688870037919,
        -0.20097685673442647,
        0.05570357654081188,
        -0.04532622482313673,
        -0.4770830310923055,
        0.26929855223642496,
        0.2204757765327935,
        -0.6492538778768508,
        -0.9630322487237007,
        0.4058797816897209,
        0.36846426496965606,
        0.2884612087281622,
        0.07336557185826272,
        0.14352658120172135,
        0.16120466343803017,
        0.21114073629694288,
        0.05569334160961966,
        0.02881373213302658,
        -0.47673028267891815,
        0.08453584153771213,
        0.41588567738518484,
        0.2768113038851396,
        -0.3965303676976273,
        0.16352354914245504,
        -0.15849061831707797,
        -0.07988023996812407,
        -0.24000101924861791,
        0.2827339332395837,
        -0.02173177669190496,
        -0.0029836929584805085,
        0.07867408499621138,
        0.4184455040796844,
        -0.24333320947625914,
        0.04513510912027869,
        0.10084201178134694,
        0.344683759360628,
        -0.34548008943829706,
        0.07936027637280858,
        0.017846225843687787,
        0.11631656187305627,
        -0.47381133022962524,
        -0.2746590972113675,
        0.19412010537510668,
        -0.16560076539137628,
        -0.3278753462728633,
        0.44420554645703925,
        0.5195970934681984,
        0.0061608419477989325,
        -0.13256363770752316,
        -0.19866813341885595,
        -0.07863247923799,
        -0.07193333518008393,
        -0.4490432525834804,
        -0.029719089973057725,
        0.5012409207001486,
        0.14703218163705215,
        -0.32481650833399595,
        0.10730248396331238,
        0.3836705839249823,
        -0.07438670259349521,
        -0.38890594605590395,
        0.19226127985739724,
        -0.22288992932338225,
        0.18934179393411135,
        0.1562248834403132,
        0.21222445826645697,
        -0.004535840911115231,
        -0.18856399963643858,
        -0.14208785265319412,
        0.0028933818553740563,
        -0.017682544672903533,
        -0.0895871640127758,
        -0.6672568252734767,
        -0.680045749861641,
        -0.6580821639735722,
        -0.5308445758681083,
        -0.5053688529232827,
        -0.6314478397597436,
        -0.09019084004901513,
        -0.39854147642271065,
        0.08341284382965344,
        0.48479478372586865,
        0.14663003336686542,
        -0.16115961714142069,
        -0.37278002448869574,
        0.30060943388849587,
        0.06681846974537435,
        0.045791620230203466,
        0.33004524724824175,
        -0.21400766972584484,
        -0.4753066573282717,
        -0.27022740382988936,
        0.057879809480519136,
        -0.4691072961260781,
        -0.7370597339247741,
        -0.4912950397961726,
        0.0895952715465102,
        -0.6161703089715225,
        -0.6316298359328159,
        -0.6088756403092594,
        0.31713041728971886,
        -0.12654788197515654,
        -0.42006376401691364,
        -0.2732145424988309,
        0.13366482706239266,
        -0.07295535247082809,
        -0.012033388624367897,
        -0.2589665505183719,
        -1.083253049320369,
        -0.10609207825734329,
        -0.34305088760340907,
        0.21268199279368002,
        -0.03981673686413208,
        -0.08150780948131947,
        -0.6663821492857063,
        0.3024309857952765,
        -0.1788171741325764,
        -0.5750215286159588,
        -0.4443260027675476,
        0.11837186087710765,
        -0.07556394133357684,
        -0.11172696118564292,
        -0.018140338858658248,
        -0.439845308143884,
        0.27450746776302665,
        0.2491387462656017,
        -0.4129363262682211,
        0.050327399865931266,
        0.6901276142811967,
        0.1699764557383824,
        -0.24917074658315938,
        -0.3412623691759649,
        -0.15556619812894418,
        -0.16022450791488216,
        0.60130966512044,
        -0.11957936080770211,
        -0.3884539813592892,
        0.5043164224161004,
        0.31567215207518207,
        0.0530435124744414,
        -0.12745988397861807,
        -0.014126200266900634,
        -0.581360863166995,
        -0.4877269060046203,
        0.05066138132209776,
        0.08269877042879571,
        0.06375090493374667,
        -0.5435893263938304,
        -0.06575953464369097,
        0.37848762195369456,
        -0.211669656774117,
        -0.4557546602016375,
        0.2497259330144902,
        0.1563432361245098,
        0.19952308570744598,
        0.17440558006241488,
        -0.1924565977968116,
        0.1976775244606868,
        -0.2363540737323982,
        -0.011515733245405484,
        -0.18106406124591778,
        -0.46943967201124975,
        -0.267787413072573,
        -0.3110861398888805,
        -0.560007578771544,
        0.4027604381442808,
        0.3347676163907349,
        -0.3591914329432936,
        -0.24677146344424072,
        -0.5110892442203139,
        -0.20372666933593,
        0.4778221611750277,
        -0.921259375472654,
        -0.5413224296735649,
        -0.7181344060396337,
        -0.008445049966843532,
        -0.0317539404082352,
        -0.18507252068827534,
        -0.3730021054874743,
        -0.9279768819211205,
        0.4362931952162801,
        0.3381949131665108,
        -0.6363894495195904,
        -0.6043832404004278,
        -0.4704234553449009,
        -0.46190124256937953,
        0.39935212877735304,
        -0.5893488467571338,
        -0.7048169170819196,
        -0.2911586411796378,
        0.30593079920288535,
        0.4323239061192484,
        0.11807712032179195,
        -0.45771817752488725,
        0.03864603392925413,
        0.32910447645765994,
        -0.039383653989605256,
        -0.15874886527043627,
        -0.07624049521342009,
        0.04123610288339965,
        0.2507368174689438,
        -0.00035790396657462114,
        0.3656036246924617,
        0.12502551536253156,
        -0.276748295549051,
        0.3165390198208767,
        -0.005140446805949246,
        -0.3368632389406482,
        0.2809226935228457,
        -0.4440801708766874,
        0.32490322708606645,
        -0.13229499084351493,
        0.14104375036938144,
        0.2257544734337877,
        0.18192389761684993,
        0.35054315402568803,
        0.46105435475245776,
        -0.6265799911089212,
        0.06017361614514613,
        0.0648796164353348,
        -0.38460435236325435,
        -0.43569351002897183,
        -0.4232899459507004,
        0.28994151853887623,
        0.3493300952634172,
        0.3617814298254532,
        -0.005107819607309745,
        0.2519002450296653,
        -0.021890034893096384,
        -0.07056060003703235,
        -0.042996756865804564,
        0.4728248977107218,
        0.308208400024661,
        -0.26942731166116113,
        -0.32509135970874886,
        0.36987066404657487,
        0.42177539293847577,
        -0.09795200976120581,
        -0.031721885446097664,
        0.2788808732942335,
        -0.12485620787342853,
        0.39880474886100453,
        -0.21501681509071566,
        -0.9503600908926074,
        -0.7425939103110787,
        -0.417216042424121,
        0.1778077217082111,
        -0.6744660517880867,
        -0.14014056331439906,
        -0.020005618115546166,
        0.2556972791166619,
        -0.006395374545255989,
        0.016032165614214316,
        -0.2997156611562969,
        -0.5159855733459935,
        0.24971571064231216,
        -0.0887512674979508,
        0.021786132056888875,
        -0.41485741679526855,
        -0.11646198388314906,
        0.3085960075681065,
        0.21874051006486384,
        -0.4903697078375839,
        0.41241962191050496,
        -0.48444963903458466,
        0.14904104905265414,
        -0.31659153545694,
        -0.10554692128669112,
        -0.19890216988845177,
        -0.25954284127487176,
        -0.462493619210512,
        0.09813855389207286,
        -0.5143885230948385,
        -0.06407337775152051,
        -0.3981724880602903,
        -0.19650584175403277,
        -0.3279457555995373,
        -0.16007509243301443,
        0.36843286887729554,
        -0.4093859244364598,
        0.3566185856624353,
        -0.4892091208170659,
        -0.623665012984649,
        -0.6727674458465831,
        -0.19377270043293351,
        0.12153422822281205,
        -0.46891386742399765,
        -0.32477945227063654,
        -0.04735894473185816,
        -0.39554940958340057,
        -0.30617041562785513,
        -0.3887120329754323,
        0.3656227639071142,
        -0.05535922520287927,
        0.27694999139823456,
        0.05345815326160926,
        -0.19903125628038032,
        0.10149343507192608,
        0.054970633228115316,
        -0.26424540500221144,
        -0.24022670902181442,
        0.4245847213962662,
        0.25346375273398747,
        -0.0758330667400699,
        0.1264140115198065,
        0.1406260668034219,
        -0.2608602318821736,
        0.0340730036746177,
        0.30784494925114914,
        -0.4155898785974254,
        -0.094856186301232,
        0.14436633132653037,
        -0.23478840685974744,
        0.14544856065438153,
        0.0059798201348288445,
        0.32090474436287947,
        0.2924108588772909,
        0.3314329486813585,
        -0.26375236699750504,
        0.02473825422080251,
        -0.27881209002505414,
        -0.053520439837116116,
        0.3855881524346719,
        -0.045975687925025155,
        -0.19572300308539325,
        -0.24161019627373778,
        0.15416282515302218,
        -0.04887080074468734,
        -0.12848390336345486,
        -0.43345923172308665,
        -0.3981806974303674,
        0.18636615610226084,
        -0.30518815692264545,
        -0.2531291219904548,
        0.1864456122376824,
        0.40011097684195485,
        0.3102077685578649,
        0.02705310402100477,
        -0.13838728341042908,
        0.15730214903380824,
        0.0927004244635623,
        0.2802451244653143,
        0.02764678218919425,
        -0.6425307587763375,
        -0.15919350299099122,
        -0.4694021674756331,
        0.14081546805413536,
        -0.4332387129751434,
        -0.6586676320339339,
        -0.6618432348261819,
        -0.35280511624891375,
        -0.37941218902230367,
        -0.45948111433966343,
        0.12303987095267586,
        -0.21827933607684863,
        0.09014459100472973,
        0.25729533984032954,
        0.2707003867045617,
        -0.5076896989155755,
        -0.2501155140574355,
        0.1319621294869104,
        -0.18347196082416062,
        0.4087904656260727,
        -0.2018509274007338,
        0.08651140916061084,
        0.1338490332652398,
        -0.34165191074549767,
        -0.2620565870230003,
        -0.14865384861341807,
        0.08876153208198036,
        0.025498465916887408,
        -0.2415639379652875,
        0.11019328730768742,
        0.35729309751513016,
        -0.22488791689796292,
        0.2099742499076346,
        -0.3172055908383578,
        -0.1922161673206177,
        0.29742520239596165,
        0.2811829621539776,
        -0.18779989968829097,
        -0.2201479368240922,
        0.08232983641300108,
        -0.4250039341097407,
        0.4128911112487539,
        -0.3128953096393167,
        -0.18370357810099147,
        0.5959329331277766,
        0.8103506552892347,
        0.03041656948188517,
        0.44647142784024796,
        0.11250786346287253,
        -0.3299505990389849,
        0.39062607964785473,
        -0.37428086405226935,
        0.35668095262447835,
        -0.05137990093418388,
        -0.5277838954802776,
        0.014662271229728418,
        -0.16220817523147438,
        -0.4154536946895149,
        0.0934337466732348,
        -0.6513867178510852,
        -0.5212940145169863,
        -0.10941905957695545,
        0.45015712499432164,
        0.023031301598571103,
        -0.8126058443032157,
        0.07123427278490695,
        0.16382931622608649,
        0.19668641394002753,
        -0.19056209547147,
        -0.7254343014135123,
        -0.7106116294074967,
        0.2075639971047792,
        -0.13578615067520783,
        -0.5810250140896979,
        -0.07262880954981109,
        0.21482460828909872,
        0.6719578612383724,
        -0.35183720055361684,
        0.0427692238516502,
        0.35221454814025527,
        -0.04114431225722603,
        0.15300568110889304,
        0.35537090856714265,
        0.10783281665910362,
        0.3079910602306995,
        -0.028147692007104323,
        -0.035519062377914815,
        -0.4497092849854339,
        0.1640190242353386,
        -0.11155028382121607,
        0.5434400298166984,
        -0.1535321175578742,
        0.36066626666544443,
        0.39672726752783755,
        0.3823784222535184,
        0.4688082614276556,
        0.04234336752248962,
        0.12299360860919174,
        -0.3107835633576244,
        0.4254700785748512,
        -0.025526744686402442,
        -0.09817311157508202,
        0.13334202253170968,
        -0.001010548116418343,
        0.13688682303940186,
        0.044476975151389916,
        -0.025962707977065572,
        0.011651996469134934,
        -0.09111228894054729,
        0.4707652664762335,
        0.2137989525375968,
        0.2637350568115653,
        0.06369979736535605,
        -0.29243197120901926,
        0.2238402286778014,
        0.39731177578676086,
        -0.5233824551504428,
        -0.33405854450766503,
        -0.013571997276568637,
        0.45587701660326974,
        0.7117451531686246,
        0.02087400349686907,
        -0.09724751214001057,
        0.5030297634994894,
        -0.2075850918122879,
        0.27396177539268407,
        -0.20951666440334193,
        -0.20523040540613705,
        -0.1220583176861475,
        -0.5537805688776822,
        -0.17233895669984753,
        0.29052672554654924,
        0.17540628508674644,
        0.18484941441415523,
        0.2303560250694961,
        0.059304750698668064,
        -0.015352118842244876,
        0.025853922033112958,
        0.02289589609008841,
        -0.026189023679140378,
        0.35601905508951126,
        0.06581111571507783,
        0.4631628561031047,
        0.2974630004878033,
        -0.7854766360549645,
        0.005419209650868731,
        -0.0386222102900951,
        0.35185689909408135,
        -0.451031690321717,
        0.1662855224477753,
        -0.46599153507078556,
        0.25383352393220343,
        0.33113855818224064,
        0.3298772553956927,
        0.44807885119915697,
        0.5841905267313344,
        0.1344362884522429,
        -0.15564720824312306,
        -0.3737494013268845,
        0.48387510333381817,
        -0.09990432862975446,
        0.4971574680961264,
        0.08927971497626627,
        0.026942529592424477,
        0.10578737407044927,
        0.1295212278696237,
        0.17503631793398305,
        -0.08313380378839494,
        0.4885513144463149,
        0.15021920295854743,
        0.1619927080719912,
        0.006684695535287632,
        -0.054512267749865714,
        -0.49169223924660205,
        -0.017168655202916088,
        0.1713743887431912,
        -0.2650783291883468,
        0.3496004315886465,
        -0.3607518776310694,
        0.11064359199561197,
        0.42835872115043794,
        0.449686172492287,
        -0.23832385091132835,
        -0.09350299928497605,
        0.6433037483782421,
        0.6705375408424666,
        0.43680228434261603,
        -0.017639005400777587,
        -0.07315922091391938,
        0.5627010397289002,
        0.6590516755677533,
        0.1530462113349315,
        -0.21632425223498897,
        -0.32798469609344294,
        -0.12027308074348395,
        0.6160454895431317,
        0.4599408014078053,
        0.28151813815809634,
        0.2921986660296123,
        -0.35923885939326966,
        -0.12969779345139767,
        -0.22002777247630864,
        -0.46619538201222693,
        -0.10821710385145744,
        -0.10155396166292327,
        -0.26715726790092054,
        -0.2029515957531732,
        0.2561693850073805,
        -0.18482550528053615,
        -0.12860233409161162,
        0.4844372848835032,
        -0.6398002401377738,
        -0.5167547934624864,
        -0.3873906356291742,
        0.2427209212477417,
        0.07099593255138413,
        -0.07859600223174294,
        0.15612598754011656,
        -0.6487864485486105,
        0.054537069864015866,
        0.0989516070840247,
        0.21604960325869638,
        0.2548465321107891,
        -0.07690174430467128,
        -0.43964733957755286,
        -0.4837586894502115,
        0.03711998203200471,
        -0.4280409975378132,
        -1.783825837677435E-05,
        0.1459603101611733,
        0.19555236023120628,
        0.6071812876497068,
        -0.19336972865485627,
        -0.4273886352937763,
        0.6237606797786986,
        0.2281125454991437,
        0.28447007121086687,
        -0.2646204903510892,
        0.4419304527684642,
        0.1940571407823787,
        0.046516110576378535,
        -0.5868352741274376,
        0.29753598753237415,
        0.17476616985008364,
        -0.10123559590713863,
        -0.2304927872234963,
        -0.0882929045144719,
        -0.5050169971100738,
        -0.4224455538992248,
        0.17803509708046542,
        0.24808028368513776,
        0.6627580152583521,
        -0.01867006771339287,
        0.29920207237848395,
        0.9291723459244142,
        0.7129396519977311,
        0.0609550966942914,
        -0.0051170583377061415,
        -0.13485880666715666,
        0.7155532420521029,
        0.12667215341648744,
        -0.25178352328186415,
        0.46690693869487543,
        0.2768469285027839,
        -0.4600316281467243,
        0.3079188213113472,
        0.2139169269246312,
        -0.5135799102664977,
        -0.2187414362557996,
        0.3006679226183284,
        0.22469035977006385,
        0.462445513116603,
        0.3257763410571625,
        0.16231697435011547,
        0.10228753735614383,
        0.28425184534799586,
        0.5297054424268949,
        -0.49392677273845004,
        -0.3044413643486439,
        0.18945049094022395,
        0.3086089821054967,
        0.0425673474362962,
        0.12207398998256647,
        -0.42361083404147915,
        -0.08301834645577941,
        0.5957146513282264,
        -0.04432079922542611,
        -0.3730830578270822,
        -0.33033325718313,
        -0.2446725976909973,
        -0.3337224551613855,
        0.3815915646327795,
        0.37886644424772986,
        -0.06152717960163191,
        -0.43207128618827534,
        0.27989504971671797,
        -0.6836618867014732,
        0.28264587548772635,
        0.2716600850301642,
        -0.38843166802697204,
        -0.15042452868296768,
        -0.21322430293863676,
        0.12722069026200264,
        0.09077869914250786,
        0.5792208451204968,
        -0.1300769568648809,
        -0.05083012471117986,
        0.019512286656326497,
        0.09824462824341057,
        0.522773725763719,
        0.17014279404336677,
        0.4317008564186138,
        -0.013519805877535922,
        0.061823974952878336,
        0.5604457236994675,
        0.9065634493200225,
        -0.18264086763376872,
        -0.42336203129301214,
        0.09534977763868233,
        0.15518707399635645,
        0.44056040197004215,
        -0.1410251750241828,
        -0.3998232296602739,
        0.5734035700061827,
        -0.1574287691109292,
        0.06944067297292043,
        -0.07499926968331652,
        -0.41216553756344854,
        0.024687889509720767,
        -0.328954424030851,
        -0.7154759861985994,
        0.4540880144069021,
        0.26714351679723675,
        -0.29747203076575923,
        0.10749330088315921,
        0.1940104248232574,
        -0.5362592888258733,
        0.321037275174499,
        0.07992375589472675,
        -0.2768848194578926,
        0.10700855849295675,
        0.3686519698529467,
        -0.13347897712577997,
        0.199440042994019,
        -0.16100861365342495,
        0.0525502142508801,
        0.187218688314332,
        -0.2910505608320332,
        0.4175793974608522,
        0.6775331420514668,
        0.6432653750147043,
        -0.236490788846356,
        -0.21311109824709595,
        0.20517348575148994,
        0.35578392127489467,
        0.5850697418681794,
        0.40475912397937386,
        -0.45865575668237424,
        0.331923324129702,
        0.7091047730485857,
        0.4466893729930907,
        -0.06464084968569847,
        -0.13213484411399024,
        -0.1485356011505006,
        0.09334790534763246,
        -0.2522412034413724,
        0.16780688966141394,
        -0.061376013114834614,
        -0.3708488277041469,
        0.04599666411004341,
        0.21213985490027873,
        -0.19792708375578807,
        -0.23283138951239166,
        -0.2281041005518366,
        0.5166370434814579,
        0.2624007346172889,
        -0.18965136070533598,
        0.4095710842167541,
        0.3350151563045197,
        -0.2050678692249692,
        -0.25164338654378215,
        0.5234791305786087,
        -0.29348269911001745,
        -0.09992820317088118,
        0.1472704349167977,
        0.22555115737593384,
        0.29699480717539367,
        0.4219502684798887,
        0.4728728705389014,
        -0.2578577458873837,
        -0.04680141877802525,
        -0.38388998095757343,
        -0.2814004307256997,
        0.4840860630614112,
        -0.315380645772601,
        -0.1673593868414072,
        -0.16798600142981382,
        -0.1334910854835559,
        -0.028027898059476402,
        -0.16128755869602213,
        0.14962634918988454,
        -0.13918902636813693,
        0.2011708181869358,
        -0.39207920556680226,
        0.010113386190018612,
        -0.0789410513022108,
        0.04609404543390654,
        -0.3861618735152805,
        0.005968215136191513,
        0.777746936157718,
        0.22496117864884563,
        0.1480259226087866,
        0.27232627332954745,
        -0.2585077920668034,
        0.6398392238407395,
        1.0335934641542306,
        0.13687362570664288,
        -0.4842959607868217,
        0.2572951277629069,
        0.8948930660352619,
        0.5455628580011346,
        0.9570063188021025,
        -0.3222300082337247,
        -0.16580370734461033,
        1.2643172352876584,
        1.3199141807744683,
        -0.2764473387733789,
        -0.09203300420870308,
        -0.30272334462433825,
        0.49742226865212963,
        0.12384716961625276,
        0.17573918785745726,
        -0.040677782717260975,
        -0.4214781610824555,
        -0.07912679645214214,
        0.30481250479791805
      ],
      [
        0.26164268879460495,
        0.4235733969438751,
        0.04166672641950037,
        0.054822275693325505,
        0.33316360548726304,
        -0.22219264130508323,
        -0.48639412040363306,
        -0.1639831746914066,
        -0.002095724799335545,
        0.5713643529362324,
        -0.11079767440013767,
        -0.16763277121049763,
        0.45847521178402245,
        -0.034077096632649295,
        0.3217657934060943,
        0.1767407482643259,
        -0.4931374168360767,
        0.03308074956225186,
        0.14569864900584428,
        -0.17372636090865867,
        0.10330496454911554,
        -0.4155505360425003,
        0.0821719244940696,
        -0.19286707896056754,
        -0.27271192346026424,
        -0.20423334711616475,
        -0.022502709285025093,
        0.32591848211778784,
        -0.060928489613470485,
        -0.11646925552230891,
        0.39753423799705156,
        0.29039868660086876,
        0.3628400610398777,
        0.18698729489426422,
        -0.08426950484197697,
        0.6759311281172184,
        0.31316028020027825,
        0.39862820359615325,
        -0.300737947574257,
        0.19854425982100565,
        0.05376975394901652,
        0.26645852859074887,
        -0.46518129149474186,
        -0.45463972032402583,
        0.3931875705872656,
        -0.25034094510708965,
        -0.39388516358813375,
        0.08431651017852726,
        -0.09783777745018532,
        -0.5605528015113325,
        0.23928684388879193,
        0.23043011042749814,
        -0.1464712959192144,
        0.37715304795618393,
        0.08223223115820842,
        0.7793193881448194,
        -0.22737950992137784,
        -0.11908736521736782,
        -0.1503651960577509,
        0.1061627888136299,
        0.11516111996350048,
        -0.48416680384851146,
        0.2977048468683602,
        0.029400547987848177,
        0.08857154093419396,
        -0.393692695993663,
        -0.4222262249187421,
        0.12450160653401045,
        -0.3101535979922651,
        -0.18941761251005176,
        0.6317463855484815,
        0.4860128454759825,
        0.2833404244730486,
        -0.1892594602243592,
        0.30257310225361433,
        0.361609072348017,
        -0.2957465305218899,
        -0.3584492202760174,
        -0.21161847512646326,
        0.3875973235924174,
        -0.07848681397904392,
        -0.3423971698444328,
        0.06091227321726982,
        0.36764710853965815,
        0.010631224325106058,
        0.21765605985125605,
        -0.009216407957132263,
        0.2617253121835373,
        -0.2554790378968491,
        0.47957225965980754,
        -0.12667773508944244,
        0.3484635063864542,
        0.21305542142604444,
        0.5318231042689403,
        0.12001151076273875,
        0.39562660948750833,
        0.16117684545865946,
        -0.49380159106456506,
        0.3622827034791575,
        0.5023126321594252,
        0.04437919189667879,
        -0.30192827154709145,
        0.03702720310750636,
        -0.18251259404913428,
        -0.17844184894020307,
        -0.12298267549172587,
        0.20032522581670892,
        -0.20918726739056723,
        0.4586248269390565,
        0.31375281407859296,
        0.4547915602345909,
        -0.17050951565770853,
        -0.5987883883157987,
        -0.5065016816650844,
        0.05785574082825835,
        0.4088503868025657,
        -0.1951383381018844,
        0.08888504498618414,
        0.10379577657357991,
        -0.7354790684148294,
        -0.3087651639289919,
        -0.22095519279470924,
        0.12795588321251222,
        -0.15913624432521953,
        0.491863468792859,
        0.23133130852283945,
        0.2573749657034776,
        -0.46276234595650645,
        -0.5171636043650213,
        -0.6493681654353703,
        -0.17730790176933067,
        -0.2385761821485324,
        0.35667832562063845,
        0.04537217126132421,
        -0.3624656660045506,
        -0.36965775746487917,
        -0.2145537080331052,
        -0.41803671987445606,
        0.028544692526639687,
        -0.10240013604592743,
        0.46307169121119424,
        0.31831482216560664,
        0.3053783344161043,
        0.21041829568268236,
        -0.26875131188749773,
        -0.16164036031184045,
        0.27200781544659103,
        0.25572882687557696,
        0.012745803665376134,
        -0.36732896311784147,
        -0.09528178719237324,
        0.37391662975728884,
        -0.17105382323033047,
        0.33491316519028824,
        0.35031728553338604,
        -0.018974157989197247,
        0.3376877035138558,
        0.06222446638559543,
        0.16673785555255421,
        0.14710673307531388,
        -0.03955180269317587,
        0.28855837633922327,
        -0.40271097919817056,
        0.24053367209293328,
        0.46418757889104945,
        0.12151370341084429,
        0.2204954596349304,
        -0.05361689816171937,
        0.413513565603851,
        0.46533835698586534,
        0.11101618176165541,
        0.04917693904918875,
        0.48967419293321146,
        0.10316495706903483,
        0.05642441895013367,
        0.5034200833301408,
        -0.03352461024246625,
        -0.024016792030311426,
        0.20434385628884713,
        0.1863703862702109,
        0.06138439495213404,
        0.41516426303302734,
        0.3064114650764219,
        0.13941904886844367,
        0.5192403866133868,
        0.0539789275073856,
        0.03447241061830181,
        -0.05650597402693872,
        0.35202620553510916,
        0.10106524552341273,
        -0.03976933254305926,
        -0.36866442151044226,
        -0.26311953431007007,
        -0.11711958580416329,
        0.19918355446364247,
        0.40824490641965044,
        0.03142962363443555,
        -0.4312700181210148,
        -0.4356029609259662,
        -0.1655461551893284,
        -0.2603138613929105,
        -0.10845009935768594,
        -0.3516121907485121,
        -0.30106635774094487,
        -0.18120593241462604,
        -0.40470042403148904,
        0.44881509793817914,
        -0.3673716285716363,
        0.14768885366591467,
        -0.2975758197485906,
        0.309003015693662,
        0.39666246821678947,
        0.33324773836388755,
        0.27040494803121906,
        -0.3465750281637081,
        0.1309403777133286,
