{
  "CPLayers": [
    {
      "Convolutional": {
        "InputSize": 64,
        "Filters": [
          [
            [
              [
                1918.7533217100247
              ],
              [
                1922.839756977882
              ],
              [
                2224.0895444924345
              ]
            ],
            [
              [
                1689.1172849533727
              ],
              [
                1892.513377061039
              ],
              [
                2227.206331213357
              ]
            ],
            [
              [
                1527.2659514874715
              ],
              [
                1895.6934053214188
              ],
              [
                2224.881224825749
              ]
            ]
          ],
          [
            [
              [
                1794.4909619073017
              ],
              [
                1811.329147856668
              ],
              [
                1925.1111403906789
              ]
            ],
            [
              [
                1988.8835632630278
              ],
              [
                2012.3476678031325
              ],
              [
                2051.5964996122066
              ]
            ],
            [
              [
                2229.2364026804203
              ],
              [
                2214.419428935181
              ],
              [
                2217.7076031143315
              ]
            ]
          ],
          [
            [
              [
                144.40970202238884
              ],
              [
                84.76723393012523
              ],
              [
                5.15671354650805
              ]
            ],
            [
              [
                81.77510480771357
              ],
              [
                24.23150667771643
              ],
              [
                -11.148715106279704
              ]
            ],
            [
              [
                56.97863879093526
              ],
              [
                39.130145899081505
              ],
              [
                -2.843176842240443
              ]
            ]
          ]
        ],
        "Biases": [
          -7462.891576637999,
          -6234.971347086728,
          -714.2147887738412
        ]
      },
      "Pooling": {
        "PoolSize": 2,
        "Stride": 2
      }
    },
    {
      "Convolutional": {
        "InputSize": 31,
        "Filters": [
          [
            [
              [
                15.523163676750276,
                15.635188523653078
              ],
              [
                41.35355267486907,
                40.66223549790203
              ],
              [
                29.112159239338613,
                28.726841460967545
              ]
            ],
            [
              [
                17.369109159297274,
                17.645058516571382
              ],
              [
                33.80265503102435,
                34.34221281308665
              ],
              [
                22.913655161096415,
                22.89242887500862
              ]
            ],
            [
              [
                9.657691926703164,
                9.873213433887843
              ],
              [
                16.60671139977548,
                17.016670783398613
              ],
              [
                7.404328168896435,
                7.233595466697785
              ]
            ]
          ],
          [
            [
              [
                8.179935157865216,
                7.645115692821414
              ],
              [
                15.603689001294718,
                15.054221591510025
              ],
              [
                31.63011337309501,
                31.279945063442472
              ]
            ],
            [
              [
                15.715026947339897,
                16.452737238029794
              ],
              [
                18.94826784910149,
                18.764009444037484
              ],
              [
                33.98713015720882,
                33.667835376882785
              ]
            ],
            [
              [
                18.28846431681473,
                18.17741547075995
              ],
              [
                23.702077686877935,
                23.519682399177704
              ],
              [
                25.61779743492113,
                26.47598571263613
              ]
            ]
          ],
          [
            [
              [
                9.607068415202184,
                9.148771562685935
              ],
              [
                4.839586242875276,
                4.693200462827008
              ],
              [
                1.734636548603344,
                1.8719923419110625
              ]
            ],
            [
              [
                -0.10153485758242393,
                0.5542787553968662
              ],
              [
                3.202079942484742,
                2.7521069823727897
              ],
              [
                9.323080322299246,
                10.086969014993164
              ]
            ],
            [
              [
                -0.7619704298119124,
                -0.45279176791538506
              ],
              [
                1.181283238904954,
                1.3407758512539816
              ],
              [
                -10.053856792100262,
                -9.845688570459064
              ]
            ]
          ],
          [
            [
              [
                3.0795425536291967,
                3.4565125739877782
              ],
              [
                4.230442624209438,
                4.359517723526076
              ],
              [
                -8.178889289439606,
                -8.382902843744983
              ]
            ],
            [
              [
                1.790102455991644,
                2.1971641539798523
              ],
              [
                8.128204670324742,
                7.492033094296871
              ],
              [
                -11.302600296426542,
                -11.588454412463234
              ]
            ],
            [
              [
                3.7996154847073296,
                3.815447661895565
              ],
              [
                10.385193434409109,
                10.034395522026132
              ],
              [
                -17.135779348205364,
                -16.771248368875842
              ]
            ]
          ],
          [
            [
              [
                74.64348178668236,
                74.62163576551158
              ],
              [
                121.41170249301716,
                120.89746068597618
              ],
              [
                92.67616866138441,
                92.6828879531009
              ]
            ],
            [
              [
                101.15669330796764,
                100.38607193040734
              ],
              [
                150.0827867397903,
                150.04532992094676
              ],
              [
                102.05176724342867,
                102.13504809085667
              ]
            ],
            [
              [
                91.1103413372227,
                91.04613217444246
              ],
              [
                134.6322126512151,
                134.61035449554066
              ],
              [
                96.83309354468552,
                96.24485084094566
              ]
            ]
          ]
        ],
        "Biases": [
          -82.68975399989858,
          -70.24385767192743,
          -44.937210221892656,
          -40.615766832124734,
          -118.40343983505032
        ]
      },
      "Pooling": {
        "PoolSize": 2,
        "Stride": 2
      }
    }
  ],
  "DenseLayer": {
    "InputSize": 980,
    "OutputSize": 10,
    "Weights": [
      [
        -0.4347677229927371,
        0.19477737352704638,
        0.4577403784357955,
        -0.28426805446730496,
        -0.3837312501041548,
        0.2030980392483365,
        0.16542669906459687,
        0.0828978829024507,
        -0.13378321462001216,
        0.4775563400984151,
        0.24922869654028218,
        0.10040388525906967,
        -0.13195215981094835,
        0.21499025157198665,
        -0.4585231091138908,
        0.011810812485594709,
        0.20206025448014028,
        0.14002210694528056,
        -0.10940689790452268,
        0.27044329563827163,
        0.30779017119047464,
        -0.43809803805998926,
        -0.031140324037830115,
        0.39609555072723635,
        -0.28339940698726435,
        -0.4296017359017009,
        0.19463182264251003,
        -0.28222036327082783,
        -0.050784848043318204,
        -0.13594807445646484,
        -0.4845880219350151,
        0.24045364659793034,
        -0.5196698561869982,
        -0.05229597218365083,
        0.13244517363518593,
        -0.27408298429925687,
        0.6267179973167851,
        -0.2593421573579422,
        -0.20208832740008187,
        -0.09281615073948077,
        0.00719866221580565,
        0.3564986480827815,
        0.07621021403515071,
        0.31980061786039604,
        0.6314306135556176,
        0.705808825444221,
        0.2623405473794947,
        -0.08538609969652364,
        -0.36851578981482297,
        0.3361975043079246,
        0.04327989907476912,
        0.47699132877293343,
        0.49711269975926836,
        -0.42546841616262415,
        -0.20233411037367446,
        -0.05271955947984048,
        -0.04855522979310954,
        -0.06563400544186974,
        -0.43866076564634116,
        0.01978951103772902,
        0.28227916772049894,
        -0.05647663437454418,
        -0.11872291292201456,
        -0.4233047739500462,
        -0.11795518729606622,
        -0.6227029678125383,
        -0.05069558591102579,
        -0.3514693259088118,
        -0.08475086641090261,
        0.012425736330539207,
        -0.30814258918811205,
        0.36326978734338894,
        0.17563189598006454,
        0.16216164710491823,
        0.002230923302603383,
        0.09914285520046441,
        -0.19653364608845478,
        -0.18004081938457223,
        -0.09591246122582545,
        -0.16769467875552121,
        0.2823418248507721,
        0.052645553161953795,
        -0.31995155534048797,
        -0.005709109176521676,
        0.6082437379449956,
        -0.3953347178617612,
        0.3224453768461079,
        -0.06550550722454913,
        -0.1770230548499675,
        -0.3780114726959082,
        0.29272648981103216,
        0.23307767766470266,
        -0.4255497918226807,
        -0.12283538158383822,
        -0.07409108360118087,
        -0.3279202628640453,
        -0.2019819799813866,
        0.2000649854609447,
        0.19724346713063035,
        0.08630351679937649,
        -0.03783227842686528,
        0.30719971274539404,
        0.06202166628046556,
        -0.3613868181643503,
        -0.12543844667947965,
        0.4061430175583984,
        -0.2640993172488928,
        -0.22873325268465544,
        0.3042096135847487,
        0.6603508832445018,
        0.33824794973239264,
        0.3110280121538457,
        0.8554775743709295,
        0.6426423723608478,
        -0.1606996365680427,
        -0.15285054359104472,
        -0.10064834964576545,
        -0.4616409075863423,
        0.039141207709970684,
        -0.49166160930594155,
        0.507364776764265,
        0.3916306540724697,
        -0.10334433100207378,
        0.20040786288501333,
        -0.20208980153051162,
        -0.585477404892514,
        -0.38675445293646776,
        -0.1330322017544081,
        -0.3094682314508998,
        -0.29546754309614637,
        -0.2633154427176595,
        0.23458556131461805,
        0.19292507066473213,
        -0.16018044907365783,
        -0.12497573453987444,
        0.3044999617545725,
        -0.283716517958467,
        0.24048773509841076,
        -0.16492353113397004,
        -0.5538504983280395,
        0.0345751977242024,
        0.11479805808518036,
        -0.18404527404898519,
        -0.28665027105167573,
        -0.217591188999942,
        0.5908527950599061,
        0.31764590055009123,
        0.33242012728464204,
        0.4315357712345669,
        0.19442762282101322,
        -0.13028315221239706,
        0.5105097168739187,
        -0.038880526332427195,
        -0.3855859910973231,
        0.14715646650079067,
        -0.41478610696928786,
        0.14366349978854148,
        0.34943416725690146,
        0.07180997848029733,
        0.3099243600811297,
        0.2967562217884294,
        0.16959338919646907,
        0.07879746617666909,
        0.0077397001711237545,
        0.1330517168165063,
        -0.030612161308985364,
        0.2768874633984509,
        -0.24131829776314984,
        -0.2634747604504574,
        -0.06444244967910819,
        -0.014446980027629251,
        -0.45617897664847273,
        -0.2711135840388707,
        0.1908057154740326,
        0.43500378783019517,
        -0.2991990835539576,
        0.35335145364105647,
        0.05922415140230038,
        -0.02226515562436683,
        0.3099765592967318,
        0.5433038021512187,
        -0.26739923407338145,
        0.08355479343390233,
        -0.005133889758965401,
        -0.0860314160775419,
        0.0013258747799537586,
        0.06365690288307269,
        -0.15800564201149522,
        0.14622105169923294,
        -0.8260232566277624,
        -0.11969860519698089,
        -0.5210858790062228,
        0.3143370568341696,
        0.1263605666369141,
        -0.3177508048216658,
        -0.250504291329779,
        0.2610939549261524,
        -0.1560513669963765,
        -0.1408116721560777,
        0.4641387549937687,
        -0.13810512897524316,
        0.3063900164942956,
        -0.3804760071031924,
        0.0672807715651428,
        0.4246502093822935,
        -0.4395449312308179,
        -0.0357926429726979,
        0.2931008581301807,
        0.37681766219091595,
        -0.0714666761457055,
        0.37977683819201996,
        0.6235719783012901,
        -0.12958549236466482,
        0.05480703216741245,
        0.17987109137592222,
        0.24541431903228955,
        -0.11671403138756922,
        -0.21851568922692166,
        -0.009717264667565263,
        0.46238485683442,
        -0.19824400970605416,
        0.12652417216459116,
        -0.34711656041756783,
        -0.14067938559334794,
        0.5784492094794093,
        0.32110857209826477,
        0.6888004203247066,
        0.37665179857131004,
        -0.2131278249995292,
        0.3209460021842742,
        0.3253448598241493,
        -0.07943817617633642,
        0.030143925295013058,
        0.045468032048461886,
        0.5010903163038636,
        0.10802152246877986,
        0.264132901370718,
        0.3136906377245518,
        -0.39569650027882525,
        0.5863826051947977,
        0.21666050523744773,
        -0.09974309262766405,
        -0.27877458848812353,
        -0.13380675144631007,
        0.2384724927940511,
        0.1473874455474344,
        0.18733148248782253,
        0.781791164762725,
        -0.3942932223953783,
        0.7414960172249863,
        0.011527099070419567,
        -0.16155019434611212,
        0.3541365602017518,
        0.15779578522722995,
        -0.23677589632472035,
        -0.11213590600122754,
        0.21534438845287374,
        -0.27500799639566215,
        0.10736458362615128,
        -0.03752084909041396,
        -0.6199929701352912,
        -0.5276085474668096,
        -0.5237352630653592,
        0.06199914229194935,
        0.13062415128249383,
        -0.37375138002915587,
        -0.2206723127453794,
        -0.4708037448524629,
        0.3865760619538448,
        0.6772521702700822,
        0.1831162638270937,
        0.07000201042775234,
        -0.20103769575455382,
        0.1388248606556857,
        0.09108866499460962,
        0.5903980122324755,
        0.3175764350954762,
        -0.008711150769299672,
        -0.13673978558952254,
        0.23662721733623235,
        0.4084543983455077,
        0.2294940820632942,
        0.20187532329467803,
        -0.1057968076101693,
        -0.1819771565526601,
        0.6449067016614892,
        -0.18834541122471743,
        0.37153347818196275,
        0.46668260540367057,
        0.39601046397184175,
        0.40866281945108535,
        0.10862414033499546,
        0.07111276297968082,
        0.23499357858222433,
        0.5287403970274264,
        -0.000984730648121022,
        -0.030964019672407327,
        -0.1456669472756179,
        0.3219614904362446,
        0.46703918051620713,
        -0.06514019951656294,
        0.26451297277688846,
        -0.13793623216733744,
        -0.2731957442677319,
        0.2217573972836634,
        0.19649447275342968,
        -0.06475685661894486,
        0.32813004313988003,
        0.2994210323925236,
        0.3395508236340633,
        -0.12161395198440263,
        -0.19155440936427418,
        -0.008681607361127847,
        -0.3262135547816607,
        0.35530395390907166,
        -0.23321694092866027,
        0.2570127256083631,
        0.3497155897778017,
        -0.26947852222939744,
        -0.2865470500625208,
        -0.04622993259245064,
        -0.5615138074031004,
        0.29581677737667866,
        0.6285137077269628,
        0.02211521577608916,
        -0.4767335361456197,
        0.22048453507566468,
        0.20446493825346093,
        0.20811770866782864,
        -0.25710531111926044,
        0.3134626350053274,
        -0.0979301099415684,
        0.07965364705265941,
        -0.23226063952555256,
        0.4357837415318007,
        0.2827224371275786,
        -0.03954844696905287,
        0.013768329252047852,
        -0.23082322823084273,
        0.7680829363659132,
        -0.025331207860631633,
        -0.1985830168675483,
        0.4777698398480905,
        0.20317065709671958,
        0.008772711510492902,
        0.28873489430326515,
        0.5704751773885967,
        -0.27961327479823705,
        0.21013458848459302,
        0.2306141321431445,
        0.16908202588727883,
        -0.23003344757503164,
        0.22305490204114178,
        -0.3981787404711024,
        -0.24549837120873155,
        0.033830604817089674,
        0.2961033783042627,
        -0.3163987966256666,
        -0.2509780297334788,
        -0.21141084767317106,
        0.688225984127583,
        0.34965308386411587,
        0.4372140935658785,
        -0.23336044011178605,
        0.6562468297588622,
        0.3986336873346526,
        0.07037190602959677,
        0.17704612730232464,
        0.10908478883183752,
        0.28375075094646207,
        0.19596413093732254,
        0.41005940283338954,
        0.4438249897334712,
        0.07226306065136429,
        -0.07754276456788245,
        -0.004631397574871278,
        0.11895706282415863,
        -0.28179151696413235,
        -0.15747816268406561,
        -0.11086373516640723,
        0.0629085190725334,
        0.0792060135693566,
        -0.2172865626766383,
        0.22174616613248355,
        0.028500739631387894,
        -0.1573136070564339,
        0.15021678400459945,
        -0.13131667656015777,
        0.12726899863885113,
        -0.3708114069472032,
        0.03904626362110468,
        0.06371749209817133,
        0.25121386969024145,
        0.3686629973975088,
        -0.8601281144289431,
        0.2937343242905032,
        -0.023309807709725582,
        -0.22984889885146334,
        -0.09743064396725966,
        -0.0656990736847271,
        0.04755504102993375,
        0.4686255398207398,
        0.2393647162214343,
        0.18671621254536266,
        0.12034025613911839,
        0.21930008258585637,
        0.5816284654764355,
        -0.009155209256015765,
        0.12299511988174766,
        -0.056250491964011655,
        0.20700918729512288,
        -0.3757683348281255,
        -0.14160757982325425,
        -0.07085445065475869,
        0.6779213573252308,
        0.07664467172770004,
        -0.0028214377612948817,
        0.21835877264163675,
        0.46240694284639294,
        0.5293178116236451,
        0.10161398024893904,
        0.3056772657807339,
        0.14052491300734105,
        0.32794883890575016,
        -0.023389655387323013,
        0.46466750053218636,
        -0.4236101414543479,
        0.15928831362293475,
        0.1315894623253835,
        0.2396084419351091,
        0.2903769000961725,
        0.48114121030644436,
        -0.032640336949601036,
        -0.14235494438278484,
        0.09945717694622985,
        0.04226060749302097,
        0.058854007046252765,
        -0.10961934427188288,
        -0.3072175279259758,
        0.1740586260090956,
        0.006440478012830089,
        -0.3235793194964844,
        -0.4004777144059455,
        -0.170920057756296,
        -0.3371903386733619,
        -0.20281078052898344,
        -0.2338345806536272,
        -0.3640407268840186,
        0.05362425444926511,
        0.18672311883900153,
        -0.38993164629177673,
        -0.5639964609159546,
        0.4122439731618286,
        0.20108691770043802,
        -0.7799032250609188,
        -0.12401845810045162,
        0.2846974631945651,
        0.29070049191885516,
        -0.10676398960224096,
        -0.20490367241294538,
        -0.3192816051117363,
        -0.26636757407610145,
        -0.3988236566472264,
        -0.04110813649625086,
        -0.8190458926832462,
        -0.5468855146999199,
        -0.12847297560587134,
        0.08642711727385553,
        -0.1777953565031664,
        -0.3550706883200735,
        0.03638905077972382,
        -0.06441997406544744,
        -0.40062004844432153,
        -0.43972923841724654,
        0.48512707382416026,
        0.4380500646561143,
        0.07463858352190969,
        0.06604187367702645,
        0.2752850537828777,
        -0.07144678793168727,
        0.47628790434312296,
        -0.10665660696532363,
        -0.13792853873472857,
        -0.322035520919567,
        -0.010728983564518298,
        0.1348876540520603,
        -0.33861796722111115,
        0.16879900776538515,
        -0.4060129330232283,
        0.07586651770817184,
        0.3723705415350494,
        0.3405473830021918,
        -0.28148092606938485,
        0.3493901378934589,
        -0.1671575833386204,
        0.15843488246013399,
        -0.45616345658047547,
        0.1668421494346673,
        0.1489343647099424,
        -0.2686587754513657,
        -0.4836859658964946,
        -0.24009647518631652,
        -0.08625065785249043,
        -0.43806278855133346,
        0.5067604136893785,
        -0.1749573456184108,
        0.28842861672398223,
        0.0471759889619973,
        -0.29832951586849055,
        0.08687160349859283,
        0.29844092125268196,
        -0.3004027182766811,
        -0.4047795233048525,
        -0.2069150294603946,
        0.31202437889590295,
        -0.44967911620492124,
        -0.004737618271999526,
        0.48754567971407814,
        0.5376323843764957,
        -0.19131611964461334,
        -0.411794234197872,
        -0.5924392018861467,
        0.02859176196473747,
        -0.47055661621174566,
        -1.0001939985405155,
        -0.5014563348971757,
        0.12269955930190658,
        -0.09118815155393131,
        0.4262554425102769,
        -0.6169627357585677,
        -0.5015552894666327,
        -0.4691492560857201,
        -0.6284355761712427,
        -0.3746571305829189,
        -0.890671424014097,
        0.2640380431638868,
        -0.08966105757975328,
        0.2377045993783904,
        0.19283257834376685,
        0.10493705775366313,
        -0.5090601704646739,
        0.174385859003552,
        -0.5026148192729689,
        -0.46450910741465085,
        0.459008568513339,
        -0.16881344602092205,
        -0.22363972338792412,
        -0.3138125636447469,
        0.016970232222652242,
        0.44018942490719887,
        -0.10968526137589306,
        0.13167488408821357,
        -0.307516973473261,
        -0.4862252851118932,
        0.5925365462845177,
        -0.07948456973551839,
        0.0968514695358152,
        0.10298591152303671,
        0.4017040870966054,
        -0.1389707507391898,
        0.2576066220064641,
        -0.4783433555899858,
        -0.04833452144879397,
        0.13472869928383044,
        0.4344411041081474,
        -0.2883074394451502,
        0.1967006620209786,
        -0.3303413192896305,
        0.49814865386425183,
        0.5733545140992341,
        -0.47381400964235576,
        0.4335928432962366,
        -0.21240418370601663,
        0.08689030550707591,
        0.4968854894449156,
        0.12045354270017262,
        0.2681804661300117,
        0.2945499724330373,
        -0.21967834934855798,
        0.47735920552560246,
        0.10385211571759646,
        -0.4969068797826602,
        0.2542025284443673,
        -0.10406785786565048,
        0.35668978827915204,
        -0.14406612735939678,
        -0.26410018587157247,
        0.2590436120163435,
        0.17994480637438395,
        -0.6096371819531855,
        -0.9669701995374199,
        -0.4590678718389372,
        -0.6562003239974733,
        0.42536968572121764,
        -0.7519030139264057,
        -0.5783973058357345,
        -0.1552217845201764,
        0.06619452107593866,
        -6.287398697849437E-05,
        -0.24849179556800804,
        -0.14025493991006757,
        0.6199207145718784,
        -0.2844005230248564,
        -0.12725718605678968,
        -0.06151606174932731,
        -0.2631585707348434,
        0.4216009384394729,
        -0.24685583357179425,
        0.28945554387165867,
        0.022858981423481885,
        -0.2177767472230214,
        0.36690078334987647,
        0.20812010803947914,
        0.04967749989746933,
        -0.18985260048841407,
        -0.15922048926391164,
        -0.46697729163609486,
        -0.19365562053083232,
        -0.17730864012870154,
        0.2496940954959884,
        -0.0820913254043363,
        0.03646679405930378,
        0.3015193088688136,
        0.24319411055776188,
        0.018673637067147576,
        -0.27963077472370296,
        -0.09053297416842243,
        0.03279038541690577,
        -0.41639783077347925,
        0.42837460538085437,
        0.12527409948676912,
        0.31867807312599206,
        -0.23210989127849205,
        0.03274138875178159,
        0.5173498956475014,
        0.18487113762503124,
        0.16668864150839668,
        0.19884321487947348,
        -0.25576685876681154,
        0.2808158677394462,
        -0.1961284885640297,
        0.08304634375790032,
        0.09656328680521103,
        -0.09522771347899207,
        0.4362543542756108,
        -0.23511882382704538,
        0.4425568184342988,
        -0.06085460364631628,
        -0.02239057187778302,
        0.3798552727313217,
        -0.40460876465067136,
        -0.15131827277895193,
        -0.11736970548428087,
        -0.11815545331460495,
        -0.3392186336101722,
        -0.18266781212308272,
        0.07338729945336339,
        -0.5508441100063769,
        0.3753481992868649,
        -0.57116339343166,
        -0.021424650928244676,
        -0.16074643035643882,
        -0.2463925246303925,
        -0.20737886977220937,
        -0.04040906209288313,
        -0.3024853835645205,
        -0.2718824704305596,
        -0.3977561579828965,
        0.14154920834064205,
        0.4033457237725349,
        0.3382995300045963,
        -0.177417425191143,
        -0.19080330845418186,
        0.1510618347868238,
        0.17062284966467314,
        -0.5717896893378641,
        0.2796532946547037,
        -0.46298273849811106,
        -0.14594403011074558,
        -0.015333611072122074,
        -0.22164830017983508,
        0.15266947572646966,
        -0.3289644932618532,
        0.23268960043467318,
        0.2520133925997464,
        -0.48409106327625306,
        0.3108129523604488,
        -0.2505947173847593,
        -0.3645688493032677,
        -0.4131605226512656,
        0.16605791370673467,
        0.3988239352288914,
        0.19709968295424415,
        0.32350615542637745,
        0.4592497725078097,
        -0.23115875886767578,
        0.49196021143291474,
        -0.23801658459684433,
        -0.11000848709556596,
        -0.19982772973379997,
        0.05720530465372281,
        -0.10835444228279055,
        -0.4101276260258998,
        0.14429420850868682,
        -0.1359746274805673,
        0.13594581467176184,
        -0.099266881876971,
        0.21339127348178513,
        -0.26454558916621135,
        0.29441190480302076,
        0.022489572466005383,
        -0.2732063941635091,
        -0.17852599454850626,
        -0.11757292618010676,
        0.8033825657903836,
        0.6970507107032562,
        -0.200539973434527,
        0.40630904906725807,
        -0.2726308098083314,
        0.5218590655137688,
        0.30744772217550353,
        0.03348099475818646,
        0.059649594298850875,
        -0.2850468167922611,
        0.4682303335539442,
        -0.27987507774508996,
        0.26866799872824715,
        -0.3552675172774735,
        0.20207915574506227,
        -0.209598528354796,
        -0.008027112113497221,
        -0.14511056147373497,
        -0.5252070774323497,
        0.4490015773738521,
        -0.609993497156944,
        0.1687803966194504,
        0.32407833429820637,
        0.33267223239774324,
        -0.08689836187947206,
        -0.11570525409554126,
        -0.17038585496881678,
        -0.4587234283897847,
        0.2747100349705297,
        -0.39290972542596037,
        0.3478048730311245,
        0.39736579868978295,
        0.19670690708227354,
        -0.4896752908099901,
        -0.5572240604051814,
        -0.12483098147128076,
        0.018918381248324696,
        -0.0017236457874794046,
        -0.2457277354949992,
        0.1876022984715877,
        -0.277303849547956,
        -0.307203321659913,
        -0.0961496524070421,
        -0.10834471908341142,
        0.09076381342844464,
        0.05500065095835672,
        -0.2797018205355023,
        0.3670895471461058,
        0.35927266933442104,
        -0.031658204210518036,
        -0.5914277638811457,
        -0.043881108297078676,
        0.5399348784873412,
        0.4544478452158206,
        -0.42167943200727326,
        -0.014013911009150587,
        0.22689628399154005,
        0.12127248864751113,
        0.308865249780536,
        -0.09070681733371232,
        -0.15226756868029304,
        -0.1640426763725192,
        0.3962959728512581,
        -0.49405961437007234,
        -0.2667531951466524,
        0.27327311836489954,
        0.20488566282292783,
        0.2655797916101679,
        0.1468139846376456,
        -0.01226436417092657,
        -0.004223045987911338,
        0.13972826451146886,
        -0.3849582616346791,
        -0.19156409847463007,
        0.30112962067814925,
        0.3528028520455144,
        -0.22596216595366886,
        -0.06383629619112774,
        -0.09716146576171214,
        0.5024925103463508,
        0.20515245361360385,
        0.07947652804377604,
        -0.03967411192345712,
        0.008645240566985502,
        0.2071901610008987,
        0.1164272520858996,
        -0.22867897344450963,
        0.1034255228357561,
        -0.28123963496871895,
        0.30196989792520773,
        -0.20228162240193395,
        0.016950253059483014,
        0.1078038802670926,
        -0.389453244813381,
        -0.02342054605616278,
        -0.13785923964107333,
        0.152324400321625,
        0.4672713467589958,
        -0.12001291729362842,
        -0.2543207476370936,
        0.08147155700674158,
        0.25706809219861937,
        -0.04461826595086808,
        0.6434180460523652,
        -0.006104562969419324,
        0.3835976782373549,
        0.5151670409443128,
        0.056081412730725456,
        0.24258957157222152,
        -0.027838617760915188,
        0.35859032469435803,
        -0.04714016547245667,
        -0.4561846602682667,
        0.3049995157017703,
        -0.35958155447624374,
        0.13124108023600078,
        -0.4384526007496335,
        -0.6751785792670898,
        -0.08872459878603328,
        -0.355846916211008,
        -0.5371502512097034,
        -0.4470753165501624,
        -0.13391887076404765,
        0.09921798386615083,
        0.4207202967827722,
        0.21362734175422318,
        -0.19394079074558468,
        0.44143024425765526,
        0.301643795224879,
        -0.1348285873963579,
        0.09156358261661146,
        0.30337034023909626,
        0.5584908873609156,
        0.2717002491804567,
        0.002452139871396923,
        0.02495037050825265,
        0.38858525449635783,
        -0.23773513172224425,
        -0.051982097226575825,
        -0.07758113403187794,
        -0.31368832979752637,
        -0.12126722072628235,
        -0.20871687429786168,
        0.056455487692127305,
        -0.2827151934314001,
        0.7070755562931145,
        0.18229215464469226,
        -0.29252922251053776,
        0.4205580751802554,
        0.553035670808083,
        -0.13630775961422964,
        0.27685088265729674,
        0.1550371097099204,
        0.6874883438131502,
        -0.431949272189328,
        0.1033763182922922,
        0.8263402871819042,
        0.3120441111035837,
        0.38907465054981377,
        -0.10728558301884421,
        0.31633673732634415,
        -0.11959297473582085,
        -0.13494098981650737,
        -0.3275151251071855,
        0.2361540660916081,
        0.3215587967200413,
        -0.20745835767670395,
        -0.01794524709110252,
        0.15252927925271573,
        0.24971588587015983,
        -0.19300960017896365,
        -0.14279866898473415,
        -0.009898153208006947,
        -0.1997430275012264,
        -0.5013411582052186,
        -0.6283387056834605,
        -0.3561987119008661,
        0.49597015883191126,
        0.28519216754188637,
        -0.04847001844715823,
        -0.46718733331177176,
        0.26211643217081276,
        0.43735969278044773,
        -0.3511305441652257,
        0.383558887024127,
        0.006899769824033816,
        -0.38506204746114436,
        -0.3749038095733487,
        -0.46657823316603314,
        -0.07206757865209584,
        -0.3469131271451331,
        0.17646879994652268,
        -0.2055771670189709,
        -0.03467100780251016,
        -0.10063622940657334,
        -0.3635141464621044,
        0.36832833273240523,
        -0.41076145991883134,
        0.4673003503180839,
        -0.08272915248085876,
        0.227065214936171,
        -0.17708771100218612,
        0.08763573920576301,
        0.24123247653731708,
        -0.1890925109021807,
        0.2919192041367854,
        0.19560282812076818,
        0.04147871541652404,
        0.39248653603459516,
        0.46281386093600646,
        -0.046239311195936696,
        0.36451074144742623,
        0.11719655460160813,
        0.4705757906105705,
        -0.07547740818451547,
        -0.22695062210942293,
        0.04017727232080948,
        0.010528532080564815,
        0.1966030575894584,
        -0.04480834848508386,
        0.011174102172302644,
        0.6014878460423493,
        -0.07248169005097249,
        0.07207847541517731,
        -0.2598814321816885,
        0.6623442092661103,
        0.7584280867067054,
        0.10762778604537761,
        0.19334103267930614,
        0.49476521665851775,
        0.4898100987282526,
        0.0658637149559577,
        -0.7204300313541413,
        0.5377957116853275,
        0.34764690676513166,
        -0.0854674801325104,
        -0.6336854611386705,
        -0.43656798106002087,
        0.321088032867782,
        0.018315925470200244,
        -0.2880598340655224,
        -0.04817040811055205,
        -0.27320614969296475,
        -0.2914841202894206,
        0.3859635776747903,
        -0.5140510456899189,
        -0.3888726158748812,
        -0.1487671370480279,
        0.37809712541722945,
        -0.14711909463841547,
        0.14449791982522842,
        -0.41640424058709796,
        0.1365755043809384,
        0.2513023721776287,
        -0.06420016687378619,
        -0.03258889225183843,
        -0.49301406857733127,
        -0.22589916327705337,
        -0.3175662941564237,
        -0.2319670062019088,
        -0.34387641706084837,
        0.4577862738221954,
        -0.43939443685270313,
        0.39451513431080426,
        -0.40587886094011816,
        0.46810502965457484
      ],
      [
        -0.4250723347293686,
        0.28866168867788955,
        -0.21595055555921155,
        -0.04038790078401897,
        -0.27149409897713744,
        -0.0749691139902293,
        0.47097486953248635,
        0.4565135617626038,
        -0.4362175137551718,
        0.2441077455346966,
        0.38715517161778606,
        -0.17088355509188172,
        -0.1380295393464887,
        0.14251591338604638,
        0.37043738063236104,
        -0.33449605214155176,
        -0.4764765765605939,
        -0.3907508990325372,
        -0.5024890179553712,
        -0.3320393651344489,
        -0.558128149818748,
        -0.19012900565659138,
        0.14252642447460437,
        -0.16077921651907234,
        -0.8095737201003187,
        -0.0878064670740998,
        -0.1440103574147612,
        -0.3779311493766068,
        -0.2367518160789734,
        -0.5292337716413615,
        -0.5638643333926646,
        -0.004965075288699422,
        0.07313878404284553,
        -0.0019288414555596746,
        -0.30594090517338723,
        -0.27228804788061495,
        -0.3882877790816521,
        -0.06704825254594633,
        -0.0545090642812804,
        -0.6177658355848692,
        0.13593999458474357,
        0.21743514849684106,
        -0.11926110053435572,
        0.20953117674880486,
        -0.1396640046364052,
        0.17214134694226416,
        0.1688537971703372,
        -0.35367726355293483,
        0.5027880808863967,
        0.44496920786729616,
        -0.006652967803969835,
        -0.5766859496150101,
        0.03840352236171261,
        0.10019172193420453,
        -0.8139607652276686,
        -0.026663861240756613,
        0.2859202041749372,
        -0.43970599872623206,
        -0.3796019620907983,
        0.39025172005714287,
        0.11876626349215537,
        -0.15991360498266258,
        -0.27970219631454,
        -0.5009905605144167,
        0.32466695769443765,
        0.06680333999620072,
        0.25760373989901647,
        -0.1273200701132053,
        0.23409022268752686,
        -0.45675630547446394,
        0.22720915103296732,
        -0.2342211148413284,
        -0.06655680945904179,
        0.09691179620906644,
        -0.03359736086549455,
        0.29561925692870256,
        0.3918877685561509,
        -0.48739280637313986,
        -0.3358092831962127,
        -0.05474127011240448,
        0.06613280909577603,
        -0.1494438333539147,
        0.056369830270193357,
        0.1252845627401284,
        -0.15962683206647274,
        0.05004838798231952,
        -0.3736684032038852,
        0.04356941660779993,
        0.12330440246019783,
        -0.20596656837264127,
        0.0629165958068188,
        0.023403000684110033,
        -0.21238142357780773,
        -0.4969977997550862,
        -0.3151661259336879,
        -0.2114763134299307,
        -0.27299463736680696,
        -0.37452164851895725,
        -0.45319380335195836,
        -0.6646589174540043,
        -0.047118581840225174,
        0.3099494243537522,
        -0.33486628588182027,
        0.5189026633666542,
        -0.5676187996634641,
        -0.2172756719443407,
        0.020419711686605568,
        -0.2560561317262175,
        -0.4720360444788037,
        -0.5261364056519678,
        0.009074743305235465,
        -0.18220358107682494,
        -0.4760807694030191,
        -0.24891314826602806,
        0.25966611990998273,
        -0.2261413969368046,
        -0.15817380124580027,
        0.06931785084247166,
        0.11316383465440816,
        -0.194523557390268,
        -0.41921659777268594,
        0.28952047080534693,
        -0.05252857238777293,
        -0.10039559068789433,
        0.027877329737627816,
        0.7878317469072899,
        -0.23469711285613581,
        0.39306172748382817,
        0.4878936823583577,
        0.4080374452244718,
        -0.2354198407524838,
        -0.30034508776999497,
        -0.02803153909640053,
        0.4220415716646964,
        0.05750553909313483,
        0.31550122947473525,
        -0.025146301077229715,
        -0.008889161464192857,
        -0.45823380259280283,
        -0.009194797805138497,
        -0.19666631168518492,
        0.2798468057426145,
        -0.405010856067866,
        -0.09626852707862109,
        0.18381808779972197,
        0.14441626725904239,
        0.2770887957266632,
        -0.32704672871587426,
        0.3779611508724996,
        -0.38473915066891545,
        0.15509048797622685,
        0.10352027602850769,
        -0.42484148764866275,
        0.12693368151691184,
        -0.15009872281275985,
        0.011853736653709201,
        0.19126355432512138,
        -0.30498778089712786,
        -0.3263749804199584,
        -0.10862072448589681,
        -0.5721465042818035,
        -0.6868608531089659,
        0.30924062210433884,
        -0.36305350000948716,
        -0.15828507246609289,
        -0.2268232433800793,
        -0.21999837513943113,
        0.26194848916451774,
        -0.25938621916827814,
        -1.0758759255210038,
        -0.06960554095527,
        -0.007648493301849887,
        0.3100510712788504,
        0.48140991217363366,
        -0.409233715587738,
        -0.2710224831947154,
        -0.25470939948560345,
        -0.6269339198675026,
        -0.1892191584888609,
        0.0546428597431639,
        -0.41871411843470746,
        0.19068821600543298,
        -0.3942903967190887,
        0.3223074823237289,
        0.16394764683116111,
        0.478612748346864,
        -0.018187491561551517,
        0.26573126761953275,
        0.3728627396773281,
        -0.08323853030497452,
        0.5387891258382481,
        0.04763082446157646,
        0.5388274596355225,
        -0.4039229988960266,
        -0.29563897651949117,
        0.1159112364710753,
        -0.3761191879725248,
        0.6196142912758223,
        -0.01772107609486626,
        -0.40643426549027023,
        -0.013965897269208017,
        -0.023556871940749697,
        0.03997538696573241,
        -0.31417730691728013,
        -0.1530130797754472,
        0.3532218431398847,
        0.3306090430405226,
        0.24352353711105884,
        -0.2847540478678063,
        -0.10738185001558727,
        -0.26795768488418853,
        -0.3804784544571182,
        0.2158847356598981,
        -0.34119239938085255,
        0.37090169442411713,
        0.35643226176480713,
        -0.3468900829667221,
        -0.20882795361827727,
        -0.493654377723534,
        0.3156046433322224,
        -0.18937512795598296,
        -0.23243794992378253,
        0.14383601200343055,
        0.40085737583079034,
        0.08781816406798722,
        -0.39311925048454893,
        -0.5193655909596379,
        0.4316276139548666,
        -0.33933919143560903,
        -0.32518564055730803,
        -0.6073761638155619,
        -0.2391553684464443,
        0.025240565551697576,
        -0.454646421861909,
        -0.04195468482357402,
        0.15808186068448954,
        -0.31408048140581235,
        0.08088326428656774,
        0.017302156221194263,
        -0.37286341312425425,
        0.07736597407124941,
        0.2922928331242272,
        0.17771768416691097,
        -0.16428573898113985,
        -0.4658688029914658,
        0.17604644260474364,
        0.5159340528908737,
        0.0663869774060363,
        0.35065221584115075,
        0.11282608129198089,
        0.9653618938206617,
        0.7738390856919232,
        0.27580842190331634,
        0.43231431070067394,
        1.024484882980997,
        -0.3480021511723753,
        -0.43440925603743885,
        -0.08687010605682562,
        -0.45858842982513404,
        -0.17205267264924629,
        -0.5134648796625504,
        0.1912161935789772,
        0.3361765952585597,
        -0.020935433553592453,
        -0.46456801713931334,
        0.10023985875262673,
        0.2936446297122372,
        -0.2762096843990898,
        -0.36845593135516613,
        -0.2530394058486958,
        0.40844585303101577,
        -0.47631245861367155,
        0.14090420798953407,
        0.4014973176286597,
        -0.5687919930052655,
        0.38348818325771683,
        -0.00526990170254198,
        -0.3247242067376633,
        -0.19918240056374464,
        -0.3226613295538251,
        -0.41596912150166376,
        -0.2628655884756159,
        0.07717836067150781,
        0.1207032282835718,
        -0.27432997167873896,
        0.06251470659022837,
        0.06183185893199775,
        0.42016607583677146,
        -0.25301714785116797,
        -0.28649850890867445,
        -0.1382194814150583,
        0.4634790536334299,
        0.38463241198696557,
        0.20618518241989736,
        0.30961936097935955,
        -0.1333311056332636,
        -0.2620332226170387,
        -0.15438152542910086,
        0.1703107292570729,
        -0.04417932187713418,
        0.5922590345190958,
        0.2598968076679383,
        0.008086294746825361,
        0.1598877110696437,
        -0.2635568785991626,
        0.281054556016397,
        -0.10182812155854597,
        -0.20862311120875246,
        -0.2920676909456744,
        0.08235227197764013,
        -0.5261623355820483,
        0.3126007749382259,
        0.6115070325429275,
        -0.07804503381724727,
        0.24325056086385607,
        -0.431267055641807,
        -0.05984085885714662,
        0.4499099345080682,
        -0.273108536419548,
        0.7895362391976579,
        0.033469133290014955,
        0.25044594531454745,
        0.45400531413262746,
        -0.2644952990437566,
        0.8163475422998713,
        0.11158344882607055,
        -0.24231060655883158,
        -0.17119022969762948,
        -0.040285413480389616,
        -0.1665160255238929,
        -0.40486128817159595,
        0.35568621992557514,
        0.4491276214317335,
        -0.3366589415760315,
        -0.7053676763617708,
        0.29431820051404417,
        0.27493596822955685,
        -0.151106923683813,
        -0.10176141884090036,
        -0.5906443556637692,
        0.28724759529809374,
        0.22235432164688357,
        0.3355124363360063,
        0.3828981008053659,
        0.1467777459498841,
        0.11024712468085164,
        0.2598829125852231,
        0.452269535022962,
        0.03548907221846213,
        0.2661976161035212,
        0.01725972019618701,
        -0.41454532613374984,
        0.12567286270248854,
        0.17984977198009927,
        -0.32864881088438996,
        0.43098929078695764,
        -0.16645026664079296,
        -0.10510428715199958,
        -0.3286579077687024,
        0.05679742130301856,
        -0.05434924534906521,
        -0.3116802982639319,
        -0.2398824914135362,
        0.37928484396616496,
        -0.5389571492874626,
        -0.2473740882697634,
        0.19434641910768785,
        0.4339428614903049,
        0.24663478935047536,
        0.3797213226938912,
        0.05457970716751178,
        0.056960859687791854,
        0.5574098415349636,
        0.13601423529748657,
        0.08979899744148198,
        0.28322999282603106,
        0.25747353640792925,
        -0.1341191474001986,
        -0.212198564594429,
        0.12255886385795814,
        0.34183807730781374,
        0.3296487514444918,
        -0.16242592928893668,
        0.11802244988620059,
        0.19897690164371415,
        0.7444169050979762,
        0.3882537791302075,
        -0.02971901037988405,
        0.3946668384811403,
        1.1587266828617653,
        0.2771720572028512,
        -0.20519773774256592,
        0.1908362590840084,
        0.012819986761184194,
        0.2752124070169968,
        0.5151103112775589,
        -0.16217848743558497,
        0.525280424667448,
        -0.24406300449283527,
        0.4321060857638797,
        0.2140128789664671,
        0.11365278473115208,
        -0.267768358407412,
        -0.4330560511519664,
        0.05480757732318176,
        -0.1367921766861428,
        -0.29387843860445256,
        -0.3614641726115346,
        0.02168167041983767,
        -0.2137848263245051,
        -0.4997393960860163,
        -0.4630493330120733,
        -0.09734475601402316,
        0.30265946320292997,
        0.19607992795548007,
        0.1981990219116212,
        0.28425158132602335,
        -0.07463832183677128,
        -0.3509009023759801,
        -0.07234947941664713,
        0.43903508597801094,
        -0.07973812564253319,
        0.18071472181536175,
        0.004599121610978108,
        -0.318354806116262,
        -0.31351486539893697,
        0.41149206749211836,
        -0.35682705165191425,
        0.3068746784420634,
        -0.016582673014061338,
        0.3833777764237615,
        0.37971482682458985,
        -0.20640514013845976,
        -0.14472346308817874,
        0.14194730338401862,
        -0.39233337980952565,
        -0.09493335866326731,
        -0.20633675904227625,
        -0.4201700696202795,
        0.4611145671956203,
        0.17616563878438563,
        0.48970750931876444,
        -0.2747877564884815,
        -0.39222043937657497,
        0.2992261961519585,
        -0.6701669790081137,
        0.06492781749715075,
        0.055163454027615036,
        0.4478186109107968,
        0.05000055004042483,
        0.16068289017712534,
        0.20487679126501265,
        0.0650996577793648,
        0.5323741870599711,
        0.2754953425758966,
        0.012605741512985004,
        0.12818181682101082,
        -0.3377144941520615,
        -0.389695327167581,
        0.3220179321208981,
        0.5513448909038222,
        -0.1747089393549335,
        0.5418125776944709,
        -0.7204334329748519,
        -0.16090025087484217,
        0.0007440479907399664,
        0.2112776289187589,
        -0.017266879473270953,
        0.22727947914438812,
        -0.37118362887842266,
        -0.1722675448165457,
        -0.4809997448865273,
        -0.009752712790639528,
        0.06282093790257515,
        -0.5430455528613748,
        -0.5227733724695717,
        0.18762056813375497,
        0.1784170403794866,
        0.0214229059813026,
        0.1763177872674345,
        -0.2987906453939695,
        -0.4425214871742402,
        -0.29830805668247773,
        -0.1643646784071943,
        -0.4695383829443568,
        -0.08762062634524839,
        0.4053880713312743,
        -0.053912572887790465,
        0.3698164103076456,
        0.1305591076342844,
        -0.13302625530105572,
        0.05434895156150674,
        -0.08666263437067732,
        -0.41935318134842553,
        -0.13549782275483863,
        0.04537158052533884,
        -0.1632628053734169,
        0.307554691230428,
        0.3458414413492307,
        -0.1024343257997624,
        0.7046035496443975,
        0.08076616105184892,
        0.10104662079840528,
        -0.2005434832479637,
        0.16420206572512452,
        0.2918341530763826,
        0.28715390911782657,
        0.24165353618614935,
        -0.2859561604214401,
        0.5507256800039841,
        0.10960367330690009,
        0.3213895536392435,
        -0.46481361297945106,
        0.23086668053960366,
        0.3132217686685975,
        0.3413236629773606,
        0.07775412156272243,
        -0.6555532185811995,
        0.1856801999390544,
        -0.17788131258252912,
        -0.10743323015504412,
        -0.05232165829556021,
        -0.19104497080158608,
        0.3734535309811469,
        0.5566593902753677,
        0.07824887838413419,
        0.38788208114487327,
        -0.1109714343131274,
        0.3138662620204288,
        0.27267871461757187,
        0.27297234975554224,
        -0.06725209220628696,
        0.44978610171488154,
        -0.32919574291679154,
        -0.4196100210312695,
        -0.23645641646795879,
        0.3078525291614029,
        0.22142152453756708,
        0.5185685518178162,
        -0.15339246305290913,
        -0.14432501806559214,
        0.028647062491478976,
        0.32960440168738064,
        0.4835219895793878,
        -0.5731022261422267,
        -0.4847043347091672,
        -0.25665458661923146,
        0.08959891405536358,
        0.3359393639940426,
        -0.3068805744205869,
        -0.00976941857484175,
        0.2684102252508829,
        0.3540881544519838,
        -0.14861570261480944,
        0.33412901964510805,
        0.4159669671357534,
        0.24791689736658754,
        0.25165907442854335,
        0.05400969000339278,
        -0.5277907731563687,
        0.11936209345835067,
        0.25860955617845394,
        -0.41219219885345887,
        0.49227436495098115,
        0.321567327090828,
        -0.30037776620817513,
        0.3217702439431421,
        -0.3120733236207468,
        0.07727958440360544,
        0.4916978310418212,
        0.38383735132740204,
        0.11361063541852315,
        0.5279364343032306,
        -0.3076235936041948,
        0.7128570017956889,
        0.5792086849233521,
        0.5159617343266193,
        0.1791079195492442,
        -0.26829534197702687,
        -0.07287830351218426,
        0.3624734445821034,
        -0.11964763059940493,
        -0.41582366195147513,
        -0.16408646664328141,
        0.3868366533329903,
        -0.5336667183467174,
        -0.3841172388209396,
        0.5184790347353034,
        -0.2690077288529526,
        0.0542139631204648,
        -0.30144382150434906,
        0.07303820198968212,
        -0.03339932099904905,
        0.1492058540667423,
        0.342025178493648,
        -0.016062887065843648,
        -0.6348511656271163,
        -0.5069954804831678,
        0.4765140672736274,
        0.006147806945470214,
        -0.8893891176483497,
        -0.13976507650668854,
        0.046095416591769196,
        -0.15861928453959362,
        -0.2232389368518064,
        -0.21590469578739935,
        -0.4380993970000296,
        -0.25697328864500246,
        0.2258861941373101,
        -0.8119936748797647,
        -0.3324538645000945,
        0.07732387719904954,
        0.21926149459385744,
        -0.46830720672958165,
        -0.2102051223904727,
        -0.24638198334803163,
        -0.6005251976053627,
        -0.45428523417088035,
        0.2256079414523575,
        0.1260923120259865,
        0.197202430917439,
        -0.21230835828589817,
        0.03449002815395348,
        0.1562761995059721,
        -0.2817370190876348,
        -0.052275072289249644,
        0.35912319827429706,
        -0.05274209587701464,
        0.34032951741478024,
        -0.46740588284319,
        -0.05593590492977748,
        -0.4506395810049977,
        0.43657568098739097,
        -0.4782308438448657,
        -0.2590325397042824,
        0.06306126480567777,
        0.054852895423775624,
        -0.38442049707988163,
        -0.4266863150697162,
        0.20127328205888675,
        0.07909841167570292,
        -0.10995101995048069,
        -0.2322783143041842,
        0.26987366257521866,
        0.4604621915374116,
        -0.29604969965435496,
        0.33998893937244673,
        0.1278081130657402,
        -0.3175538464042216,
        0.11961910466381609,
        -0.09831784064909393,
        0.004759110917774031,
        -0.03843136624623507,
        -0.10442366287661706,
        -0.3982013609129668,
        -0.10592731187212459,
        -0.1603966050859502,
        -0.06354955011423241,
        0.31006930971583996,
        0.21328754562532762,
        0.10984706351049671,
        0.22491743110346385,
        0.30256019105894333,
        -0.22399905055107994,
        0.5642432643193612,
        -0.32740377993422104,
        -0.4464702680275921,
        -0.02729903937397762,
        0.025036392114672106,
        -0.025891710716870072,
        0.3606144356528019,
        -0.3885401241565683,
        0.15536587056697623,
        0.3613090731959095,
        0.25583159250217913,
        0.06510403418281187,
        -0.23266268508191593,
        0.17324848476766544,
        -0.351318688794248,
        -0.1172002797778869,
        -0.22376458101091784,
        -0.5640835132618338,
        0.3833585348943672,
        0.19294659242840337,
        0.056686593298441,
        -0.3447047545583258,
        0.19077246863223324,
        -0.4467933777686066,
        0.06360476618271961,
        -0.016193120466878982,
        -0.13730153388793923,
        -0.08482315459287168,
        -0.5297814415213303,
        0.07018231162359308,
        -0.36863107356550406,
        0.32001681446746255,
        -0.13140772891236974,
        -0.06685862833115137,
        0.30886838258267757,
        0.07899407225775738,
        -0.11838175611947363,
        0.002853630269247966,
        0.011964067963359925,
        -0.36321863026867063,
        -0.1405906692074443,
        -0.4573545667399623,
        0.09861927037885407,
        0.03629622140669775,
        0.29658578115219797,
        -0.10530992390786072,
        0.09423796207843775,
        -0.14403905414311252,
        -0.20355622242657556,
        0.3074615719745988,
        -0.2066666847979673,
        0.037281327730211984,
        -0.42327167083431305,
        -0.5653752394802333,
        -0.03130191194904983,
        -1.0598694933299029,
        0.23718602994500876,
        -0.39715866557779367,
        0.2867152926121314,
        -0.14423061755901162,
        -0.37029635948291584,
        -0.13560181505598956,
        -0.11848119592499529,
        0.11428686346669079,
        -0.011909064546737014,
        0.20082496694697685,
        0.18049355850017146,
        0.30083113082103435,
        0.1229780229454258,
        0.27899699865841016,
        0.6152369839842213,
        -0.1015792244710297,
        -0.37176073013686073,
        0.45209807639276134,
        -0.07416713297589103,
        0.39074831895842843,
        0.3344343411200946,
        -0.01871250800038897,
        -0.19368758251083454,
        0.36440343778153456,
        0.34943452172437195,
        -0.3829908227214985,
        -0.2889468247430707,
        -0.17382691918810428,
        -0.024310294783264044,
        -0.03200246602840907,
        -0.5748659439424152,
        0.19905494828750014,
        -0.20723160154163012,
        0.17752384076727312,
        0.29413705210428903,
        0.23208867475566733,
        -0.6135122868020966,
        -0.06732153728608864,
        0.09671506162516118,
        -0.20977425456284787,
        -0.3114819181416387,
        0.3042297763254227,
        0.23123314765424055,
        -0.09974534240305186,
        -0.19366577007094288,
        -0.017105214765179472,
        0.010573159589749258,
        -0.3443112436729879,
        -0.49033892307514393,
        0.13664792198398562,
        -0.1496549829667251,
        -0.36770000398165453,
        -0.3015879541714435,
        -0.050295227759361856,
        -0.43965022714148233,
        0.39806786509948006,
        -0.5249810045143259,
        -0.2622233412115258,
        0.2937826731025859,
        -0.009724201849352384,
        -0.7634260443038169,
        0.2029735696811773,
        -0.3653066443014994,
        0.36468859051363955,
        -0.6802941290294869,
        -0.4729717746157029,
        -0.2104333616558667,
        0.4086954727070071,
        0.4325648033698264,
        -0.6137084850632304,
        -0.4119362560680162,
        0.26359824313323565,
        -0.16291532038243245,
        0.08913517144590064,
        -0.45887378185970523,
        -0.5182101469210668,
        0.11602763971187748,
        0.05948101539982715,
        0.21866583284824656,
        -0.5949204182789339,
        -0.0014165988709631035,
        0.2625726404047266,
        -0.3659513013760064,
        0.19098435015365003,
        0.6272948250718932,
        0.3558688604299207,
        0.08826546581125985,
        0.5581112223766523,
        -0.17947719410899093,
        0.37471186662261613,
        0.2951535478355622,
        0.13166526182307262,
        0.22765412822183814,
        0.42290095397723737,
        0.1089329529189383,
        -0.2446952459779358,
        0.12164682335748397,
        -0.31662899399663513,
        -0.49452688883193,
        0.47480052119853455,
        -0.10253756853343413,
        -0.4297622694897415,
        0.15134537576123674,
        0.25798476077335264,
        -0.6541947481559218,
        -0.15010369541819182,
        0.1868801010065649,
        0.33444751123280353,
        0.3590114379520075,
        -0.34398545012010295,
        -0.14485661702433608,
        0.20106597415602595,
        -0.1338352806407349,
        -0.3732348303549871,
        0.35297907296216213,
        0.24650589122074593,
        -0.45816269224701606,
        0.39528516902558924,
        -0.19389401714140317,
        0.36661333650515576,
        0.38547077775435296,
        0.413998590459559,
        -0.016377800493075995,
        -0.14612178887161817,
        -0.1942888303489822,
        0.0357994890333466,
        -0.5572781281944614,
        0.01023888799945113,
        0.128654371713626,
        0.08388345378775007,
        0.21793876342966056,
        0.09526768193304329,
        0.37303126199684167,
        0.22541112547873313,
        -0.5170502119817082,
        -0.5014101891085263,
        -0.5218743103324833,
        0.10368565354528916,
        -0.2691943930014286,
        -0.4578066172928259,
        -0.18452378421734045,
        -0.20507645779436337,
        0.05810005010631592,
        0.11513087776063237,
        -0.9956196876586463,
        0.029120891213819184,
        -0.43201037394277864,
        -0.3361078363450214,
        0.1845831666268663,
        -0.6102788203518689,
        -0.32200004059388215,
        -0.20824582771828415,
        0.3267076522747679,
        0.11183934106255704,
        0.009364495825042254,
        0.5800842569606682,
        0.12825208771630697,
        0.3195893752629156,
        -0.344013688204861,
        0.104755210708164,
        -0.19525935442058653,
        -0.3556833600256025,
        0.3861720573816967,
        0.03539030590671697,
        -0.10244099155815777,
        -0.30804128062747826,
        0.09437970462809772,
        0.3522802698417593,
        -0.23695368372828174,
        -0.16540967756798833,
        -0.4784897976092898,
        0.26252329093194693,
        0.26250006488038197,
        -0.3200206656448475,
        0.4614002653797562,
        -0.543908507550259,
        0.07054359622263391,
        -0.3720489644203475,
        0.3533629873140156,
        -0.23844401197621926,
        0.2940811367232976,
        0.20186073120724335,
        -0.4793443115711241,
        0.4610269271922092,
        0.4488155821004933,
        -0.45654245652782816,
        0.27683621697735317,
        0.1361707208353097,
        -0.4101012460468937,
        0.3084444914579202,
        -0.3655308061299314,
        0.0636498364945174,
        0.03295454937772029,
        0.490304169921831,
        -0.4262360976657198,
        -0.5466171193681737,
        -0.6490378247366408,
        -0.3588650744057253,
        -0.33459155967745413,
        -0.34413945729030065,
        -0.662872235148868,
        -0.22250116311169837,
        -0.05957827626143578,
        0.004010336602662661,
        -0.04488718371884823,
        0.18711888720688125,
        0.39648772285399375,
        -0.15837553711472802,
        0.05979149523248185,
        -0.4912210464195452,
        0.30716644785301006,
        -0.261733129297201,
        -0.08553521751041096,
        0.5093131793603485,
        -0.035575832075226334,
        0.07455403298901488,
        0.07324518144608055,
        -0.1780195967337778,
        -0.21210864545856015,
        -0.26545670191621057,
        -0.5304683495186057,
        -0.389590650066964,
        0.27115047869177605,
        0.009176792168688077,
        -0.03604065158006562,
        -0.04072654026690349,
        0.47182045296908787,
        -0.2325916064954614,
        0.4179310276539662,
        0.18414832404037795,
        0.17395747927904565,
        0.23108198296015825,
        -0.39992313704175825,
        0.47099594036671066,
        -0.07375516892794227,
        -0.01094565776376665,
        0.6603564985452937,
        -0.36932290522263056,
        -0.05486217327960266,
        0.36517970764283086,
        0.06198300410164673,
        -0.03898504684614834,
        0.06894258308110182,
        0.34533274678683024,
        -0.07727338792615104,
        0.5587358030373405,
        0.29678753979544875,
        -0.21357994691718646,
        0.37988091946311064,
        0.09005168812623235,
        0.827301173131059,
        0.775409483279944,
        0.08707699331306012,
        -0.12031759027334699,
        0.6775085730623859,
        -0.09322840124176855,
        0.06636291104000912,
        -0.4906450968391457,
        0.07278917892951309,
        0.36121102241570535
      ],
      [
        -0.48032455879538316,
        0.49690768175709477,
        0.46059455485474127,
        -0.26837078288337735,
        -0.4774352161422087,
        0.4826254039797887,
        0.42919708638850773,
        -0.31678700866446885,
        0.30718962257404125,
        0.44879325107238766,
        -0.16052481078917014,
        -0.4717541918506584,
        0.08317880177092522,
        0.011222032502132587,
        0.22765840139529614,
        -0.3958760520624753,
        0.3981479870125554,
        -0.12651209914223324,
        -0.34429153172682125,
        0.45051562208845874,
        0.26974157520485903,
        0.2918581544981876,
        0.048093799964197444,
        0.05193990086972869,
        -0.20933824109596857,
        0.2674878343369726,
        -0.11311619056839196,
        -0.44166393461080156,
        0.3669106601302027,
        0.5493568090757251,
        0.1184323429609014,
        -0.15135908788290825,
        0.3580495023658297,
        -0.09230623839680063,
        0.17627851736846323,
        0.977156773215717,
        0.3592287816269852,
        0.13554364440466876,
        -0.09461395687850735,
        0.12434158715326336,
        0.03369947914845781,
        0.45829085240504647,
        -0.2129412082983573,
        -0.14254783231044071,
        -0.012861746704833251,
        0.023975727066685278,
        -0.11643276592213245,
        -0.03669923084540307,
        0.27829999130982014,
        0.0788394548483806,
        -0.17866300163061496,
        -0.3027733523674772,
        0.3048618169117753,
        -0.08213869375636239,
        -0.1739109744436534,
        0.37906520820783113,
        -0.3776185378854222,
        0.41208866515865095,
        0.031423445274077935,
        0.04723367808477713,
        -0.14491810129314148,
        0.2053099931853574,
        0.18237674673561635,
        0.10786935133905995,
        -0.1484264031610165,
        0.07385694219207656,
        -0.24084640574596689,
        -0.12993143034505153,
        -0.2534445642857621,
        0.07045483957365901,
        -0.4211916565173889,
        -0.4303341183313805,
        -0.49102419527470414,
        0.3607038563785123,
        0.44872706023611436,
        0.3449531893542646,
        -0.39314243728486925,
        -0.1747988360159413,
        -0.1986415371659791,
        0.11164984438244226,
        0.034964038441568555,
        -0.45551794289059905,
        -0.18636530300176637,
        -0.3634189907771799,
        -0.5012609523939121,
        -0.1110914583008659,
        -0.3376275400920828,
        -0.1256029910842157,
        -0.07262912916537066,
        0.11054592271267541,
        0.30952018014426796,
        -0.4520358818301206,
        0.17320546272107445,
        -0.1663947584855942,
        -0.41168685291005513,
        0.15321943255160017,
        0.5159618605201324,
        0.3733912412052787,
        -0.3482007851480217,
        0.37874781236293087,
        -0.1603997498992742,
        -0.3286122592885856,
        -0.39641173831617305,
        -0.06571479043652936,
        -0.004382988446709937,
        0.16390689622756863,
        -0.38367772055838784,
        0.1607159197702434,
        0.047062997456863286,
        -0.049935156567058527,
        0.5545740284398805,
        -0.14073808976222196,
        -0.236997917356455,
        0.24745036339841117,
        -0.49419225889306345,
        -0.2122572335565279,
        0.449395585688152,
        0.6046000936387169,
        -0.2643339638159853,
        0.2710486681531508,
        0.3101170962878342,
        0.18267990462236686,
        0.33318192311428013,
        -0.02113183617137081,
        -0.05734422426178861,
        0.4803536401835419,
        -0.15415129697323662,
        0.00256586971493757,
        0.03435432699183687,
        -0.6935734658874694,
        0.24188805132694952,
        0.09999970434981033,
        -0.37220412096864214,
        0.40497082880834234,
        -0.48108213726726445,
        -0.7716491159843221,
        -0.6691232243984108,
        -0.3649972702394054,
        -0.23247948046422226,
        -0.9309048475031108,
        0.031055165070753822,
        -0.2503906590052345,
        -0.019084895910913505,
        0.023278421182385288,
        -0.059480743569781204,
        -0.2735764925912808,
        -0.35442188019506377,
        -0.22123143970569822,
        -0.14653819534466295,
        -0.41331160548316936,
        -0.328608097539637,
        0.4195796752600862,
        0.45269542382838335,
        -0.22417282249125164,
        0.16445549640368667,
        0.17047642535472557,
        0.256305180800572,
        -0.03041396572509401,
        -0.10666238513515673,
        0.16954196067504593,
        -0.3438512504686969,
        0.28522113463232207,
        -0.43493799696453705,
        -0.05581629901705079,
        -0.14656800553877514,
        0.031073643568523244,
        0.11885079789411081,
        0.4084334841643784,
        -0.19063552702192213,
        0.46807011903214407,
        0.17432032208915518,
        0.38231218495586283,
        0.5251086433869482,
        0.21178481100103283,
        -0.14945036530690828,
        0.41024717344871725,
        -0.41657354499798666,
        0.3844462584947671,
        0.2085317163851212,
        -0.3676250150750313,
        -0.4554709539559772,
        0.22448175614456706,
        0.31558198821694206,
        -0.03019709054614379,
        -0.43727243686000467,
        0.12691779559198818,
        0.3155769026091315,
        -0.34031554712641104,
        -0.251559484535862,
        0.7504764275135419,
        -0.40105829467031245,
        -0.10280048573739349,
        -0.6859194832837938,
        -0.32638565737536024,
        -0.5579121014619319,
        -0.6237118940759956,
        0.22640947489735375,
        -0.28406665579288737,
        0.1227039779752581,
        -0.11292338754359167,
        -0.5367150659848797,
        -0.5932132474151851,
        0.1658874030499549,
        -0.37576605532581964,
        -0.6004142680098685,
        0.04217156896243895,
        -0.7457103716321045,
        0.2205311011786111,
        -0.1691634440030774,
        -0.5325734521874965,
        -0.3127858257076063,
        -0.21304841588966397,
        -0.1756706684917879,
        -0.36278059442346533,
        0.2519104735041225,
        -0.24271282049525786,
        0.347672691569604,
        0.33604629678732156,
        -0.49565385831667086,
        0.4743653916001001,
        -0.10039842534212881,
        0.1454030733584956,
        0.18164564504729597,
        0.48314387489716,
        0.2578151958345893,
        0.47293961032852616,
        -0.295759335490583,
        0.053663583991965844,
        0.12738566473654958,
        -0.16635758437816972,
        -0.5328551204962308,
        0.008838111726453187,
        -0.2557407185273275,
        -0.5451848080136582,
        -0.3409314389464723,
        0.2288157176293465,
        -0.2394193844755787,
        -0.2149544212862327,
        0.12418341635217581,
        -0.02488128790348715,
        -0.36212362236930135,
        0.08486189570222408,
        0.3748804581973973,
        -0.21923019998594553,
        -0.11075083687455538,
        -0.2760939605361702,
        0.0055474421117580365,
        -0.4360436592570229,
        0.670998562745623,
        0.02430615994501192,
        0.28528706723848574,
        -0.3644992836187417,
        0.146753230738218,
        -0.20886747289910598,
        0.11707061931292853,
        0.07845759616640893,
        0.7314204358844351,
        -0.26177262365020454,
        0.397167584817356,
        0.20587687253666742,
        0.121957068276001,
        0.29810256859489137,
        -0.302046846368635,
        -0.29239084924794406,
        0.14488359565352005,
        -0.10869350037459827,
        -0.1266144920568469,
        -0.007173649676529555,
        0.41643970963219057,
        -0.438233566580092,
        -0.43717537741981727,
        -0.43128048350276743,
        0.28005282859751535,
        0.4237133823499463,
        -0.23670694643401402,
        -0.047604699361736794,
        -0.44493482724470884,
        -0.2534425786908145,
        0.014375323145900192,
        -0.1872356085553955,
        -0.0626270301514164,
        0.15332293956487641,
        0.07986592292758292,
        0.018593242974757025,
        0.33564170782527936,
        0.33398503969400384,
        -0.4980619598638181,
        0.09296595728628432,
        -0.31703481173156856,
        0.2943032755640152,
        0.1124241543883857,
        -0.30352097084011614,
        -0.21131859218157326,
        -0.04505909822663601,
        -0.5833582997762449,
        -0.07188149137691055,
        0.10278989239437207,
        0.24133483312567897,
        0.2575583691382018,
        -0.575566588784903,
        -0.2754278409035974,
        -0.5362253140938716,
        -0.21369638085713233,
        -0.5695992578581207,
        -0.9596898964527091,
        0.22588921985292207,
        -0.2915494299113271,
        0.08780322242459414,
        -0.15207686764848447,
        -1.0527442344920876,
        0.22779066431953154,
        -0.25507452761467836,
        0.11285089903065014,
        -0.055923812582165236,
        0.1899808581967643,
        -0.3352505812774783,
        -0.6749242295195548,
        0.3577731985290744,
        0.027043670868365528,
        -0.041307655377209464,
        -0.37242022965040716,
        -0.2394792839771647,
        -0.42096312747931836,
        -0.450302330940085,
        -0.04858097729809187,
        0.6122403934954849,
        0.19248487371382414,
        -0.46340874098536267,
        0.4144727190970405,
        0.4857147650375334,
        0.12147449836866683,
        -0.2743825701011518,
        -0.02434676921098577,
        0.046878244636332604,
        -0.18977715997730157,
        -0.1223902961752743,
        0.352033243188541,
        -0.020684474887585957,
        0.23163248389367952,
        -0.1477916579630206,
        0.11470168404857871,
        -0.4402674901463603,
        -0.06949239882050658,
        -0.45182446584990504,
        0.2315979488160002,
        0.26891271268584616,
        -0.028911467890477285,
        -0.35766575294448927,
        0.02126102754236203,
        -0.181014107642997,
        -0.08616013230255623,
        -0.4010342736645128,
        0.3305312389021024,
        -0.07211412050063667,
        0.3772576088405023,
        -0.15726880320352285,
        -0.5092843866187712,
        0.11245893930099259,
        0.3908239300196866,
        -0.5716306185892538,
        -0.21340168899685016,
        -0.07540318470927933,
        -0.5160141505610608,
        -0.11350318480656384,
        -0.17257631825090372,
        -0.33945723525852334,
        -0.0155820174608785,
        -0.4285925454556678,
        -0.1673722966275792,
        -0.5565733145934292,
        0.14357820067813074,
        -0.21054331639701834,
        0.10725042509592855,
        -0.26607035512281263,
        -0.7090489118947283,
        -0.7983454682059711,
        -0.0671209596126718,
        0.3784156704786748,
        -0.19733127171990486,
        -0.7312765636483459,
        -0.16159623328840297,
        -0.7346379761631084,
        -0.2944079823544962,
        -0.056133974329081744,
        -0.46459352129248505,
        -0.6370868882233774,
        0.14184543054049026,
        -0.22439966525104837,
        -0.3792265899069911,
        -0.26344853624580716,
        -0.09816628150224069,
        0.2454109500927038,
        0.03952668087500625,
        -0.3392550579888533,
        0.05358399341198019,
        -0.27689021139688835,
        0.20688970176508728,
        -0.3204470707836864,
        -0.09605783603471078,
        0.04908831543988723,
        0.2776406808058412,
        0.12109282548916914,
        -0.38965209242719184,
        -0.1555638522152507,
        -0.03453133244025004,
        -0.4366821736122508,
        0.16005915177913813,
        -0.27169544487450825,
        0.4470093286602435,
        -0.44584148572529814,
        -0.1265668814166709,
        -0.02319788077154295,
        0.33741781693300404,
        0.3058104698883424,
        0.11554353949798717,
        -0.4298490021803841,
        -0.008359475436721166,
        -0.18018675788347013,
        -0.34435549293092566,
        -0.03203977242529002,
        -0.02554422701964971,
        -0.03213860821561032,
        -0.04226036390793548,
        0.2707674479291629,
        -0.4979491836197945,
        0.27191811514579767,
        -0.4300572379126776,
        0.4260811377992534,
        0.061296870125750344,
        0.4229493986613486,
        0.44729219038961615,
        0.11749828101552125,
        -0.1651570369027428,
        -0.16059801779365743,
        -0.4578206662447264,
        -0.4542959298653647,
        -0.11679578071809349,
        0.1928835780013261,
        0.4156873510446283,
        -0.6263129403612858,
        0.12018783476014697,
        -0.06655997434817727,
        -0.2812605905054344,
        -0.34477989939833686,
        -0.8976151326310203,
        -0.35856306048554715,
        0.09273254908571527,
        0.07610502032412422,
        -0.06748173398104428,
        -0.40083335111181617,
        -0.19652201503881275,
        0.044250703992822264,
        0.2334746047991069,
        -0.5108734982110709,
        -0.47295486338213055,
        -0.17942267575526077,
        -0.06427172857226804,
        -0.32141369428243055,
        -0.12998499676585465,
        -0.6633649085964014,
        -0.11216457220290102,
        -0.7098205302544174,
        -0.11776805478496571,
        -0.4081350795418987,
        -0.07111368194874557,
        -0.48717776606207763,
        0.4090330631525661,
        0.05017420852951593,
        -0.398426800114882,
        -0.21053557311161822,
        -0.30562113400003654,
        -0.0018337927891691156,
        -0.5340227043768586,
        0.10678120576712774,
        0.006952904615864505,
        0.22548442627087745,
        0.07521248684282841,
        0.21858386130316756,
        -0.5026706500647012,
        -0.484274420658473,
        -0.37248157356100264,
        -0.30923473126437623,
        -0.14214208510650986,
        -0.3221500589889672,
        0.1200916575783765,
        0.15019230491235627,
        -0.2728817525302548,
        -0.5177301347423059,
        0.20491742978732422,
        -0.21280293968241554,
        -0.36052912996253605,
        -0.18298576100059058,
        0.26525134981943915,
        -0.4595590420853037,
        -0.3591565001686288,
        -0.20537319704646662,
        0.11853718116848158,
        -0.167615933829962,
        -0.36822334845071303,
        -0.2428455670156603,
        0.3461917774719914,
        -0.33751611038856244,
        0.15088791337359064,
        0.3313455951550698,
        0.21716458130259825,
        0.5099205547687574,
        0.05034325728245736,
        -0.3879551741817792,
        -0.4534355723285068,
        -0.09388103786465593,
        -0.08286658459008296,
        0.020768481572498897,
        -0.025227726666150793,
        -0.4214840250374993,
        0.017117884820351,
        0.02649155405024299,
        0.1918566189841359,
        -0.35707844458311994,
        0.37387403107612627,
        -0.1896308799406675,
        -0.16654531834224398,
        0.4681440853061948,
        -0.3907490981947413,
        0.04893615606816445,
        0.3749494798891553,
        -0.26759628287955145,
        -0.5193567127392474,
        0.04836068365913653,
        -0.16335843789246535,
        0.6117923895189241,
        -0.06426166733902956,
        -0.15045077809727272,
        -0.36914761073454694,
        0.20346944020802518,
        -0.12805867848595193,
        -0.2630111591911322,
        -0.42511801272618444,
        0.239567143800518,
        -0.40113873983286263,
        -0.318593138196061,
        -0.3969138003227075,
        -0.2327135389313559,
        0.2968448112128169,
        -0.15209611562801112,
        -0.45745014248391175,
        -0.10275337290693522,
        -0.03751797845410364,
        0.19310961447067668,
        0.10598929999518338,
        -0.7845881539367836,
        -0.495165704106573,
        -0.11784222665336262,
        0.09002502987327794,
        -0.09920363969195022,
        -0.1422112823460813,
        -0.5261957967784661,
        -0.20959285421988663,
        -0.1358292004895182,
        0.37273174858427677,
        -0.28440928001921695,
        0.21401414797116883,
        0.18104933160358724,
        -0.05761997796817033,
        -0.3407111840457611,
        -0.16016536773296255,
        -0.061173361713826646,
        0.03455641837263519,
        0.1726130273049851,
        -0.20042388739496564,
        0.3267466738062896,
        0.5269964645841941,
        -0.09336858985585941,
        -0.4052277263731728,
        0.4683316802029454,
        0.46965828185461594,
        0.4325600790083505,
        0.2783957800715666,
        -0.16148008993085713,
        -0.2824986520959876,
        -0.06873832174799444,
        0.1708802557791484,
        0.025597217770226645,
        0.2677712148121164,
        -0.416495197483306,
        -0.5364918463398488,
        0.18653373733075657,
        -0.20882781156640318,
        0.10744684159886868,
        0.14176583182795485,
        0.4890185389968273,
        -0.18592915037872512,
        0.21986720477080945,
        -0.2713904947328052,
        0.06146867575671336,
        -0.26130436424670683,
        -0.0031860452997091136,
        -0.2597067405699543,
        -0.33684337463125974,
        -0.04901055802484414,
        -0.461449952698799,
        0.03251010783466114,
        0.1903080127245101,
        -0.08861657159046603,
        -0.5277584222825709,
        -0.11468558473545319,
        -0.4012474288472443,
        -0.20812112150427917,
        -0.16934064801775633,
        0.09858550756066016,
        -0.7230110825302456,
        -0.21109737442510035,
        -0.27296793426995036,
        -0.20286923812473998,
        0.19107420270808917,
        -0.18776357090656015,
        -0.5974248618978698,
        0.2633882067755396,
        0.20513967913289818,
        -0.2891428393195894,
        0.17502445023958274,
        -0.09704351761178562,
        0.0964819656356974,
        -0.10505946713532002,
        0.4085132397112027,
        -0.021042272402925603,
        0.2852035783447175,
        -0.429459143838289,
        0.28133938967690947,
        -0.17019497278358048,
        0.4214014245636865,
        0.033090552015295684,
        -0.03501003141233462,
        -0.5116247342656565,
        -0.2513437061698893,
        -0.2367855329090617,
        0.2518374279275839,
        -0.05612910466232341,
        -0.12910666829589812,
        0.26332883942798446,
        0.164094150178203,
        -0.03189575067531423,
        0.6096445686623203,
        -0.12984443028781786,
        0.36261295720745784,
        0.5608766021987074,
        0.045424246543904916,
        0.09879473472833189,
        0.26718759797438274,
        -0.4601548894498591,
        0.06321502453850766,
        -0.039868662988797224,
        -0.12336730970615291,
        0.4921359895261659,
        0.12600060697688145,
        0.44661469170608636,
        0.4087091612289306,
        0.3461469455120025,
        0.054621959986706936,
        0.23478622624751186,
        0.6060695714158949,
        0.07905662574551767,
        0.1851737372314978,
        0.4099781171672979,
        -0.28730900062538595,
        0.7502634193882703,
        -0.09250920681643375,
        -0.4812190588576756,
        -0.6105020794382291,
        0.08260355605187057,
        -0.4273459468426846,
        -0.3015496815384026,
        0.015113061531936096,
        0.2427826972006231,
        -0.08691177509978502,
        -0.07699949980620957,
        -0.1843246790456631,
        0.051830949986249146,
        0.18008330117869953,
        -0.13282327379102862,
        -0.09352780250615,
        -0.58120052452357,
        -0.6379669384257064,
        -0.12362773039057716,
        -0.2508616014759051,
        -0.1346090377621305,
        0.17926695309203183,
        -0.4055740760496816,
        -0.4674742187614904,
        -0.5740218846767479,
        0.044858793597969175,
        0.5913964123794254,
        0.16659567439649337,
        0.2959492243546104,
        0.20225918352851535,
        -0.05640229754671333,
        -0.26618750724359364,
        0.24725006744070283,
        -0.019188728584883307,
        0.24380748085282555,
        0.5151050319848087,
        -0.23871680299469167,
        -0.16445026032191704,
        -0.3829499432760473,
        -0.2316619800257913,
        0.40253973431930706,
        0.5658053337012743,
        0.0666590988520868,
        0.21513319787275578,
        -0.43909034295693916,
        0.3850789293664111,
        0.2673724723800215,
        0.031017326739758808,
        0.5700356371911133,
        0.25830810500925117,
        0.7186130887327525,
        -0.3211583114016609,
        -0.34778231734749826,
        0.6658600820200427,
        -0.3088154932185263,
        0.4673711900465864,
        0.20787120486309096,
        -0.20039936388749732,
        0.1027999842393315,
        0.21198431441392931,
        0.58857484649859,
        0.031401586379194615,
        0.19588629602456445,
        -0.23093628362462992,
        0.2948499738340861,
        1.0931375159629482,
        0.6642182799909105,
        0.2654863336930687,
        -0.43600096407018535,
        -0.43176885992124525,
        0.6577713988552525,
        0.05888148084217786,
        0.31816556143236246,
        -0.14544945489381178,
        0.2127538028781698,
        0.16268448261881518,
        0.07356497077081538,
        -0.2743048690643326,
        0.07649233248752504,
        -0.3043388852445713,
        0.012286859625577008,
        0.31375069494819735,
        0.17640623708841194,
        0.03163285532751469,
        -0.1070987838079208,
        -0.22059566273561484,
        0.21449067252876536,
        0.027887615928379277,
        0.2098564305382455,
        0.4806992975679991,
        0.45780709493728877,
        -0.10053864334589922,
        -0.08965755103258684,
        -0.3986736605184019,
        0.2264569709876584,
        -0.11585902586900255,
        0.051488111946152874,
        0.16896114792578507,
        -0.01812291897929184,
        0.42145013211895666,
        -0.3301311815386554,
        0.11998565136043379,
        0.08044977148086818,
        -0.43060443911875546,
        0.15962188147350498,
        -0.21837661382283063,
        -0.20923594787803643,
        0.3084382238112943,
        0.3785491550000742,
        -0.36126514487068156,
        0.09524696764859349,
        0.5685651701758297,
        0.13258758992894037,
        0.13258943876888424,
        -0.04975833458843135,
        0.17566490879654517,
        -0.18815574872154328,
        -0.10597507703201632,
        0.06775698009016125,
        0.404587312076587,
        0.9435979204814938,
        -0.33816381850235444,
        0.6200234115794545,
        -0.2325676133112131,
        -0.32859725776720755,
        0.2695661749420855,
        0.28842266180402987,
        -0.11394761696991569,
        -0.1650708468472975,
        -0.22441919174899277,
        0.34548370298143466,
        0.6183970571034536,
        -0.10428706816932606,
        -0.27513732769773663,
        -0.39373807680681894,
        0.9098707674981416,
        0.20744972819805924,
        0.1945384345975976,
        0.6508003487136009,
        -0.3892394661630904,
        0.20434220362667993,
        -0.2736470389890466,
        0.39205441551731074,
        0.37565570315386987,
        -0.2796916024986378,
        0.27874051986108433,
        -0.32486128670252445,
        0.06846575467945142,
        0.2558471476199876,
        -0.07633603823604597,
        -0.039316410361179374,
        -0.0016719606851513032,
        0.4455519972298813,
        0.06876776150844922,
        -0.44994971335541245,
        0.9888601782014845,
        0.2479880970836336,
        0.05741468197044203,
        -0.006420617882892766,
        -0.3663540862408951,
        0.3180657470519266,
        0.2630911650520311,
        -0.339352694480429,
        -0.14461591605744728,
        0.4110571939284706,
        0.46983176334938553,
        -0.023463914472554474,
        0.21238894203203973,
        0.2844771623949655,
        0.031083507217033027,
        0.22719084278975193,
        0.3463003179259423,
        0.42621411290915723,
        0.36314512668822374,
        0.38263131741182504,
        -0.18363030856034748,
        0.11364701968413764,
        -0.2319152902432912,
        -0.10747464634364728,
        -0.13484222588404873,
        -0.05786208145419193,
        0.03923193505247843,
        -0.3576435366941929,
        -0.014489279254374024,
        -0.13255103577622257,
        -0.06792470447076869,
        0.02182882451469557,
        0.251751582669585,
        0.01843067781023969,
        0.3266218938801817,
        0.3881733594714854,
        0.20774047487143305,
        0.14717492524569956,
        -0.23057267972108236,
        0.2878921376446601,
        0.723918333970713,
        -0.001442401090194541,
        0.598004458355449,
        0.12428328773729957,
        0.2741683958088262,
        0.20478015218617157,
        -0.09164166902379955,
        0.37994946597305346,
        -0.17138789348582878,
        -0.13260031790077229,
        0.3203042457028057,
        -0.14354164575567047,
        0.05525861808827441,
        0.23190882600516707,
        -0.4811421752872587,
        -0.3198846003552953,
        0.406772647547355,
        0.02561190571862955,
        0.04715260379024473,
        -0.073008084868937,
        0.28015067535606836,
        -0.3162750775032825,
        -0.255767856919013,
        -0.027085945862497927,
        -0.3422531771145855,
        -0.14438871476931608,
        0.2616410177879991,
        0.1674252802124415,
        0.6077346857870216,
        -0.12400554420013069,
        0.7783206981012412,
        0.4816154140979759,
        0.17167381654733407,
        0.10228714617563264,
        -0.056951664322059066,
        0.21356155383259035,
        -0.2666242117132906,
        0.06138435174007837,
        -0.2363602447117414,
        -0.43871328027739265,
        0.3664120255680778,
        0.05697316272870139,
        -0.11880342817647215,
        -0.3717751565728407,
        -0.1636581467526041,
        0.5967331208038141,
        -0.15201005243978377,
        -0.008412640111880119,
        -0.20710105920618227,
        -0.28365190574300825,
        0.12157169998482356,
        -0.5395647885929126,
        -0.47688768120772346,
        -0.21543318060887823,
        0.2349057737061673,
        0.3077161275884349,
        0.42615597235244107,
        -0.20290053361612112,
        0.19212541021125212,
        -0.140751812253096,
        -0.1714168513154863,
        -0.3776281770995787,
        0.1286910673119518,
        0.1015590037238356,
        -0.32665776582790496,
        0.5773342089715471,
        -0.07086556919510381,
        0.13707977621436263,
        0.23917964027434613,
        0.03244415347844543,
        0.36009987069675237,
        0.7583786390026521,
        0.14566666895489827,
        0.29122330791893036,
        -0.2581309958356054,
        -0.22801667887862556,
        0.31132925090203145,
        0.2636399915266117,
        -0.05730696026059345,
        0.19913743625107475,
        -0.6467665095344789,
        -0.033354909002606625,
        -0.7081285841416496,
        -0.044747197508760966,
        -0.3786412750291938,
        -0.774900480039289,
        -0.3636679394421924,
        0.5630050380790809,
        -0.17231820390042027,
        0.0751924607103106,
        0.06310880597054423,
        0.3835034487704648,
        0.08435462271338665,
        0.318180553654149,
        -0.443367022092078,
        1.0476239154478677,
        -0.39432426656856645,
        0.12172931347132543,
        0.1269123770395352,
        0.3577071874585816,
        0.8784045070916169,
        0.7964076636778011,
        0.729983891697833,
        -0.24046929913361217,
        -0.3797469429482651,
        1.0599067565021045,
        0.8788521531552618,
        0.9689714202765873,
        0.14710985207442362,
        0.1873863338394952,
        1.3121691028552491,
        -0.16063091507614002,
        -0.20016017996387034,
        0.12214630828218076,
        0.06001511202870642,
        0.4026721335768195,
        0.20175845979861448,
        0.008334862256125026,
        -0.2714248884293803,
        -0.3939192772327368,
        0.2700070037835641
      ],
      [
        -0.2969175379875215,
        0.1314650354026165,
        -0.434475852931823,
        -0.07218145700348638,
        0.016872666094226458,
        -0.06754915705323422,
        0.30137536389322195,
        0.36855955866534357,
        -0.025757049163270433,
        0.5731980426639588,
        0.507807651169262,
        -0.28372394722825933,
        -0.3386022771214733,
        0.3739500323260224,
        0.07837697511597633,
        -0.3085755625526964,
        -0.46416973197147793,
        0.23845744207426456,
        0.10939448146599105,
        -0.559047505891543,
        0.11248544149458406,
        0.14957687068844847,
        0.2447707677564513,
        -0.23134285104215446,
        -0.2796648831644432,
        -0.12420185236985642,
        0.11921177627518573,
        -0.4253379683449352,
        -0.15513495897869797,
        0.5321917875472902,
        0.3483258332441062,
        -0.27490793720991263,
        0.25632301863178375,
        -0.2990833166670056,
        0.052405621250702236,
        0.09867870390230421,
        -0.11862585778246224,
        -0.2964422327382435,
        0.05878757396323633,
        0.1276251144009176,
        0.39031733589208945,
        0.43070792861022866,
        -0.3155833549309202,
        0.6501899359475459,
        0.29693817980474413,
        0.23504758111238738,
        -0.2795239275051163,
        -0.2083564382110524,
        0.21741417540611752,
        -0.3668931347334075,
        0.01135620865502107,
        0.18916383558467215,
        0.07345069316606719,
        0.4833788960617035,
        -0.3253299733078615,
        0.18606162672424564,
        0.6631752614520037,
        0.41226147961030485,
        -0.3547791354297793,
        0.14759966682130626,
        0.1669167115143509,
        -0.3601036911935225,
        -0.2321273242515132,
        -0.04185032772905681,
        -0.09867132999023806,
        -0.049495833989576424,
        -0.5601588765697073,
        0.010777630452665441,
        -0.354412464748826,
        -0.49304693969289515,
        -0.384626535010439,
        -0.1876740557525712,
        -0.1873188178439754,
        0.4270869910694667,
        -0.08930944171542662,
        -0.038437111085974,
        -0.3686267611822964,
        0.32671008292851694,
        0.523885883470883,
        0.3955811782212671,
        -0.15123662735934612,
        -0.04218207386593188,
        0.2786817875894231,
        0.21252629609968762,
        0.30754485989346714,
        -0.06400319062689698,
        -0.3614636467847747,
        0.16721354958766096,
        0.216410735815096,
        -0.22878234257053987,
        -0.5292509081334439,
        0.3323687847781342,
        0.2039228093933599,
        0.4399439071784753,
        0.2673008287603531,
        0.09146953141585154,
        0.48585105693777436,
        -0.10000857498144598,
        0.2657195962970055,
        -0.03540385087256754,
        0.08715280769696554,
        0.3048019731777419,
        0.2678113693983984,
        -0.3027711958082107,
        -0.40699643279368725,
        0.11254235181021775,
        -0.02189728378421642,
        0.049792484388574455,
        0.09974804057049756,
        0.10142000054505927,
        -0.06170622450480574,
        -0.12711631688302413,
        0.18682596285895525,
        0.09803019170817322,
        0.4407177250186655,
        0.5306316083556839,
        0.15150907448599216,
        -0.005066828557651052,
        -0.48626113145503386,
        -0.13805047255102465,
        0.08936972223314742,
        -0.005946743959485789,
        -0.49262639267069425,
        -0.41568036996077345,
        0.3637488934472852,
        -0.2462966525395449,
        0.4563553819136193,
        -0.01575077262166685,
        0.14797011202116647,
        -0.4839095270279203,
        0.17907343536763268,
        -0.6524391423910721,
        0.41695637130286156,
        -0.03297149204271642,
        -0.7044875514355482,
        0.29504289389889576,
        0.19945950815514746,
        -0.2340885719218778,
        0.107748541717547,
        0.06957096110347512,
        0.13912084891757956,
        -0.15736015165713532,
        -0.38726685303761604,
        -0.07027038897200183,
        -0.05632810615405094,
        0.3166781725050385,
        -0.09530019571496287,
        -0.013664048437078205,
        -0.12662714124593719,
        0.21468197097184538,
        0.35124147250382026,
        -0.22796488432756973,
        -0.057655936254156596,
        0.4712144400509327,
        -0.03266908185823882,
        0.24961331369873435,
        0.16442017689850139,
        0.5287335782088842,
        0.4433975395586108,
        -0.38418347764769456,
        0.1686754316066371,
        0.33081856406744165,
        -0.22137868144848605,
        0.1444668948440525,
        0.4520655076348361,
        0.26349035577067204,
        0.05610700470955924,
        0.6481666992034553,
        0.3144018122010348,
        -0.021064386993008916,
        0.1300242670888719,
        0.11097196048998771,
        0.4720906088410772,
        0.12238952392562165,
        -0.282468285942836,
        0.6140782584484524,
        0.3103666136617432,
        0.37963141698238995,
        -0.1600882720136681,
        0.630784439187274,
        -0.2433584506847612,
        0.1161119178288579,
        0.39864518001780574,
        -0.5183121231418731,
        0.1359631481852806,
        -0.12832576598793968,
        0.5454862044720904,
        -0.39183929085652164,
        0.2592435137095584,
        -0.057305599216377845,
        -0.2999202930646312,
        -0.12007192735082817,
        0.29794156938546756,
        0.11803908996071666,
        0.1346090989537784,
        0.16590444916032657,
        0.27476626836045476,
        -0.32034404008678,
        -0.37868033770806264,
        -0.3517253895748116,
        -0.1878458635046287,
        -0.08476653157792238,
        -0.33775683872140166,
        0.13183140602365295,
        -0.003460263470651645,
        -0.1141990221793538,
        -0.25337087169861466,
        -0.09400485914383176,
        0.46400650231237056,
        -0.3929154335439714,
        0.36662760136740696,
        -0.07363225002065626,
        0.4578028415575995,
        -0.3608828202172967,
        0.4119294960820974,
